getSiteName,-0.76531947,0.22874174,0.1952029,-0.4557447,-0.8845077,-0.95822257,-0.07064074,-0.6250189,0.6974597,0.81422246,-0.054162927,0.8618759,0.5645235,-0.630841,0.15000357,-0.08743499,-0.7802781,-0.43636766,-0.20202932,0.38377553,-0.75989705,-0.43435252,0.08056763,-0.24236956,0.036586456,-0.1928485,0.086049415,0.2592397,-0.1932416,-0.37660745,0.02054698,-0.055651087,0.73916936,-0.08072486,-0.89561963,-0.061956488,0.04213211,0.28729102,0.54753983,0.57815474,0.6761092,-0.4274371,0.6098211,-0.008734914,0.31423736,-0.21796244,-0.03412982,0.12963843,-0.35263965,-0.48739105,0.6130264,0.35543862,-0.7684346,-0.30464172,0.18297064,-0.109231934,-0.39744803,-0.0018272549,0.65371376,0.13243815,-0.9698281,0.43071026,-0.446339,0.42720065,-0.15453488,-0.8640913,0.59651613,-0.65911233,0.37789792,-0.67611134,0.43293557,-0.10734234,0.59088564,-0.68324655,-0.3950295,-0.12239358,-0.7712799,0.17182836,0.6270387,0.048287436,-0.98032665,-0.4953943,-0.2876837,-0.02371487,-0.6476706,-0.052638613,0.79123753,-0.18035102,-0.005616069,0.44792867,0.8373444,0.74184835,-0.75256956,0.6986098,0.06795506,0.98185366,-0.5062561,-0.78937083,0.6147613,0.19403082,-0.08619119,-0.10818821,-0.3509314,-0.84429,-0.041151773,0.30397257,0.2843563,0.42034307,-0.64512974,-0.48142233,-0.55357707,0.18324576,0.77554965,0.5399493,0.38147146,-0.81084776,-0.08633287,0.041508988,-0.78961325,0.42662832,-0.90640205,-0.0060627833,-0.14613925,0.46116114,0.9928864,-0.33833545,0.28499696,0.3160714,-0.79617786,-0.61909,0.24075757,-0.87160957,-0.93534815,-0.30112195,0.70974267,0.5088227,-0.56149364,0.72577333,0.11995646,-0.5641519,-0.1784453,0.7649374,-0.46795973,-0.2987392,-0.76238704,-0.21228261,0.7702131,0.42472234,-0.1401434,0.17200887,-0.008731253,-0.039160945,0.2274163,-0.020531312,0.80885875,0.8634041,0.48598093,0.54929376,0.8378934,0.6877972,0.8844844,-0.31702757,-0.98105526,-0.12607661,0.7030261,-0.24526986,0.9002007,0.23495929,-0.33600584,0.92252326,-0.8048297,-0.5621204,0.78247935,0.19799589,0.8282367,0.8019264,0.19504848,0.4221117,-0.005113274,-0.46417066,0.29462424,-0.6805699,-0.053819675,-0.67728317,0.97123235,0.001577273,-0.9625535,-0.01002942,-0.06335308,-0.5931242,0.037297547,0.14404856,0.83990574,-0.9495355,-0.37891024,-0.3475139,0.46820748,0.9552926,0.3473948,0.4505868,0.47757414,-0.5557778,-0.29720378,-0.029298484,0.39714015,0.6382546,0.49179733,0.2782244,-0.147384,-0.7342794,0.037004963,-0.9484672,0.5090972,0.6040131,-0.9263836,0.5889807,-0.6375889,0.51222515,0.32360768,0.734018,-0.06992849,-0.2709733,0.7442008,-0.4096793,0.53212833,0.82689095,-0.22068183,0.48099318,-0.4568664,0.6526668,0.61917233,-0.9284787,0.48472896,0.47558358,0.12069772,-0.06662432,0.47724614,-0.19416124,-0.9942521,0.15377864,0.113774285,-0.68078846,0.6832197,-0.6902305,0.35806715,0.015400812,-0.11638939,0.042808574,-0.045955725,-0.46788982,0.25304776,-0.86072123,-0.925123,0.14675345,0.7376698,0.18135333,0.66454643,-0.15256852,0.21958959,-0.27725333,0.11314915,-0.5129707,-0.8203093,0.22382422,-0.2123209,-0.0073870346,-0.013122924,0.6471193,-0.086910054,-0.104780674,0.45853668,0.5512667,0.8827511,0.05990008,-0.89371717,-0.53460646,-0.68677306,0.16161667,0.21234185,0.056885064,0.5043148,-0.11914505,0.7757768,-0.9845711,-0.39015257,-0.74054176,-0.40328056,-0.28778917,-0.43663687,-0.9341281,0.2483427,0.34767768,-0.89585453,0.668494,-0.784352,-0.57978594,0.8583212,-0.2672902,0.116517276,0.13037707,0.20065075,0.30273962,-0.22142875,-0.7596519,0.65976596,0.1341948,0.4429415,-0.3350605,-0.42535114,0.057725966,-0.21168725,0.29564732,-0.5545649,0.63226163,-0.8405288,-0.35184526,-0.975162,0.64827293,0.25099266,-0.18822372,0.63799465,-0.7359266,0.025326472,0.16681293,-0.3182351,-0.7264312,-0.9141337,-0.52854836,0.27431685,-0.5886971,0.6766827,-0.38204795,0.75617373,0.9791431,-0.36446664,0.14814937,-0.06112223,0.22674695,-0.6752392,-0.17570378,0.54322827,-0.7934202,0.014050327,-0.4625657,0.6639182,0.16837902,-0.13222261,-0.77561104,0.3808724,-0.8687178,-0.077924855,0.19685273,0.6050596,0.045293823,0.022467922,-0.11736481,-0.3386975,0.1407975,-0.73166037,-0.37472212,-0.62697136,0.10732661,0.3186325,-0.27576274,0.1029621,0.48654273,0.7927683,-0.23213497,0.67307055,-0.11670285,-0.050074726,-0.8223369,0.67978424,-0.2242682,-0.13056879,-0.41192007,0.3389346,0.975183,0.33713043,-0.6980802,-0.26065665,0.11479149,-0.58245826,0.6655373
setSiteName,-0.42182705,-0.24899071,0.34900892,-0.5235085,-0.93631417,-0.51451844,-0.22688845,-0.6592858,0.8675182,0.5935585,-0.008027956,0.7773163,0.917712,-0.9044073,-0.023474412,0.91472375,-0.87621635,-0.1251772,-0.31691355,0.6176461,-0.88135505,-0.25966156,-0.2844352,0.09137815,0.6100207,0.19540137,0.12835905,0.39886683,-0.25805512,0.35115546,-0.35506183,0.14094642,0.40734172,-0.36020276,-0.93907726,-0.6442175,0.4269433,0.01981315,0.27604005,0.47184956,0.48140898,-0.6487168,0.85885024,0.2657312,0.20108885,-0.11101045,0.00032895058,0.76045567,-0.6069645,-0.90434873,0.75446266,0.38308662,-0.63749725,0.3813659,0.7892047,-0.50986814,-0.1062689,0.4962742,0.8269304,0.20262903,-0.82358706,0.74085146,0.47977608,0.5508803,-0.78466153,-0.81497025,0.8030544,-0.71888006,-0.2112138,-0.80847085,-0.26894435,0.47018713,0.25386652,-0.7979242,0.10347163,-0.7863407,-0.88455653,0.1457856,0.57101697,-0.749477,-0.95115775,-0.52223665,-0.1904665,0.81769884,-0.8223031,0.25741667,-0.057318985,-0.78949404,0.66141903,-0.28298584,0.7319595,-0.10563829,-0.57507724,0.6413224,-0.09944613,0.9475174,-0.48362902,-0.94561243,0.6071696,-0.18776707,-0.35019737,-0.67711353,0.036572777,-0.6402314,0.3431375,0.72672826,-0.10780579,-0.2019279,-0.123532206,-0.47535068,-0.7882196,0.49326515,0.95744705,0.37305441,0.8908402,-0.8597517,0.48519456,0.24442469,0.3117621,-0.036730446,0.3574858,-0.54607636,0.37004375,0.79763347,0.4319495,-0.029974665,0.018849853,-0.78295404,-0.7079899,-0.3303066,0.14074041,-0.7252325,-0.45560834,-0.36109078,-0.09672434,0.5988115,-0.20510843,0.85986626,0.7060455,-0.8634596,-0.15408643,0.78569734,-0.7281414,-0.7266611,-0.86688435,-0.5447845,0.78741086,-0.4164247,0.60439336,-0.009487072,-0.07349262,0.3126891,0.38661546,-0.29030412,0.20502517,0.54663014,0.8831048,0.8771033,-0.062238634,0.685338,-0.024204291,-0.34802225,-0.35707206,0.45161378,0.820107,0.2438242,0.32888752,-0.58230907,-0.009900004,0.5335436,-0.80964166,-0.6206994,0.82058287,-0.19620481,-0.09454203,0.6118198,0.8299377,-0.6751508,0.09578338,-0.7591987,-0.18908334,-0.8968963,-0.72910905,-0.05907711,0.17914751,0.43598154,0.27612433,0.1379124,0.32174686,-0.79073584,0.19254473,0.29645786,0.71830887,-0.2064155,-0.280748,-0.48149383,0.7769334,0.9966694,0.019372864,0.58186966,0.49911487,0.11037824,-0.8123728,-0.3282501,0.08219643,0.5884614,0.22625387,0.721154,0.7548685,-0.9515609,0.6658348,-0.8525047,0.80936253,-0.7876179,-0.5820359,0.3993013,-0.85964245,-0.6534388,-0.36010513,0.8452974,0.5647139,-0.16332948,0.1570445,-0.6670412,-0.82243073,0.89121443,-0.36510542,-0.91525126,0.35872507,0.9290567,0.9681375,-0.33472753,0.4298624,0.51521325,0.23137486,-0.68569803,-0.26503205,-0.030563649,-0.90428525,0.6047454,0.5803372,-0.24575016,0.74754775,-0.323963,0.78177387,0.033662003,-0.17410311,-0.49457425,-0.17202687,-0.90405643,0.729381,-0.9564195,0.33616567,0.09083431,-0.41321075,0.634714,0.06914845,-0.36271456,-0.09553356,-0.7661235,0.09889263,-0.604508,-0.8908603,0.17420278,-0.5666137,-0.17337227,-0.6033094,-0.13879275,-0.46968913,0.22988242,0.10886064,0.8899227,0.8242108,0.23448195,-0.5954282,0.39952838,0.07865511,-0.12914708,-0.34629196,-0.79744434,0.74494934,-0.80555135,0.7515493,-0.76927185,0.30335677,0.88397336,-0.32252342,-0.7615111,-0.04578815,-0.5351499,-0.020679561,0.6708445,-0.2535568,0.37316567,-0.95014095,-0.7711101,0.45592895,-0.16377062,0.37011808,0.75384045,0.7660481,0.63779896,-0.8028349,-0.5982709,-0.7343377,-0.076697394,0.65918565,0.58434933,-0.82456696,0.44788492,-0.6203434,0.65648645,0.83395886,0.9265686,-0.5438157,0.38592663,-0.7975176,0.5869219,0.087749496,-0.38488567,0.5345173,-0.7398988,-0.7764091,0.7540353,-0.4227999,0.53363216,-0.6962775,-0.41409123,0.0055627376,-0.25436828,0.8919836,-0.52686894,0.89407253,0.9110143,0.44604543,-0.7152047,-0.59344554,-0.01591938,-0.6564866,-0.6486892,-0.026137337,-0.77031046,0.39593628,-0.72341275,-0.83011365,0.5919486,-0.05796296,-0.9158607,0.22219664,-0.80359703,-0.556252,0.6227171,0.49707943,-0.5286616,0.7735156,0.30835918,-0.68242735,0.29027268,-0.70099247,-0.4190683,-0.38869888,-0.13945168,0.7505202,-0.62056476,-0.038222387,-0.038598992,0.7508444,0.17076693,-0.08781248,0.37414262,-0.56593645,0.49684635,0.5044896,-0.3373196,-0.13056552,0.2386275,0.21101345,0.3216285,0.1818372,-0.83674884,-0.7503838,0.2874047,-0.39604455,0.62921876
getPageSize,0.4685382,0.28927416,0.030375198,-0.971711,0.5149403,-0.3821744,0.7614391,-0.40606225,0.87470174,0.16561544,0.90681064,0.9561335,0.11298527,0.14394921,-0.7153396,-0.9153595,-0.29831162,-0.5293751,0.8503665,0.034816757,0.033518337,0.6208745,0.36346042,0.14660366,0.58012563,0.59362197,-0.27909675,0.59867203,0.050457686,-0.19577272,0.06267271,-0.16866139,0.8326326,0.44168144,-0.33365732,0.8047867,0.6841118,0.86623216,0.5637393,-0.32381004,0.4961917,-0.846334,-0.119286716,-0.22210868,0.23386821,0.5085678,-0.68819463,-0.36028698,0.16154476,0.10874071,0.20210996,0.44787246,-0.6938392,0.69228166,0.39751387,-0.10941216,0.27658862,0.386037,-0.30857873,-0.45038575,-0.07377106,0.53950715,0.19587946,0.39725858,-0.53741854,-0.46464983,0.39292195,-0.5140815,0.77969897,-0.51225036,0.7631514,-0.737797,0.33509028,-0.32262996,-0.16392247,0.34430206,-0.6385191,-0.2497245,0.4160859,-0.34571522,-0.8503766,-0.9325806,0.17352636,-0.5465417,-0.38260782,0.16139995,0.6907544,-0.62352836,0.048173957,0.5574952,0.74573255,0.6224774,-0.9383006,0.5552714,0.6097092,0.5632616,-0.69671494,-0.7426864,0.9392266,0.20436084,0.5658387,-0.26463628,0.28866595,-0.46914425,0.16966972,0.41404718,0.15343915,0.74169993,-0.40059182,0.45047808,0.17131974,0.5769584,0.6383176,0.27103806,0.25179818,-0.81286407,0.1166223,-0.8932167,-0.6466236,0.89171696,-0.87873197,-0.18121013,-0.31919923,0.6598064,0.13955626,-0.38636506,0.6937867,0.9270487,-0.56670773,-0.54783463,-0.8161099,-0.60744935,-0.7235996,0.5964432,0.11049256,0.65572095,0.18914719,-0.2181072,-0.7904149,0.09928979,0.76124656,-0.12264359,-0.60377944,-0.048409954,-0.9473784,-0.0116730705,0.8508201,0.03233543,-0.6395505,-0.1436347,-0.7136501,-0.39193895,0.004535258,0.09802683,0.7117397,0.700354,0.19357497,0.1121843,0.7009772,0.3977456,0.8797499,-0.19972146,-0.082444966,-0.2925284,0.8478957,0.28608033,0.8842629,0.98684597,-0.849766,0.85185784,-0.00419496,-0.42658567,0.66641337,0.6810434,0.5379196,0.63507247,0.14544067,0.46890268,0.04971704,-0.21061115,-0.32101256,-0.65322435,0.58747977,0.1825237,0.84168124,0.23329815,-0.85053927,-0.35424545,0.1473032,0.4811565,-0.57731223,0.7370256,0.7655595,-0.9292854,0.11354604,-0.4650282,0.50696725,0.9035784,0.15419357,0.689327,-0.7573719,0.3906004,0.35276502,0.6253636,0.43790093,0.4499832,-0.0973889,-0.2738613,-0.44487813,0.24369103,-0.21352516,-0.7651166,-0.49839345,0.54114103,-0.81733894,0.45252758,0.58047426,0.77027404,0.29091313,-0.23830086,-0.54341567,-0.49645567,0.8902509,0.54154927,0.11953354,0.96439177,0.056919813,0.3163353,-0.26810512,-0.023128048,0.6390638,-0.51296717,-0.49998385,0.16099629,-0.24214293,0.10808849,-0.31149644,-0.0077688396,-0.24876663,0.2783966,-0.24185209,-0.4684763,-0.12250482,-0.45199126,0.39271167,-0.14812458,0.30622065,0.5182631,-0.1593714,0.4389213,-0.13587135,-0.22117522,-0.8042035,-0.43898755,0.20964219,0.5315362,-0.12698886,0.10584985,0.049184203,0.33902428,-0.7099711,-0.63934374,-0.7845912,0.22086129,0.10138339,-0.042713657,0.677776,0.616736,-0.07376925,-0.5099971,0.1421295,-0.56553006,0.08321333,-0.7896788,-0.0063564554,0.24575819,0.57138336,-0.16699865,-0.27786332,0.7050829,0.17956507,0.25684187,0.57162535,0.33572352,-0.8839758,-0.6969078,-0.1418311,-0.36747605,-0.7289666,-0.7143401,0.0089441985,0.33720782,0.09867957,-0.18057482,-0.39334866,-0.8078536,0.9841058,-0.009210363,0.87956274,-0.74816996,-0.28459167,-0.38971597,0.6741079,-0.68170404,0.49600804,0.13422734,0.38343322,-0.4970312,-0.68177414,-0.014416963,-0.0719752,0.5286362,-0.6898172,0.18181828,-0.5038699,-0.8984466,-0.9423392,0.6731025,0.49902758,-0.25949183,-0.6486069,-0.7547546,0.20667025,-0.315872,-0.043155722,-0.52998435,-0.39377898,-0.49609664,0.07620021,-0.3508733,0.59185994,-0.6541073,0.8730934,0.2605566,0.054994375,0.97741187,0.4250385,-0.3273161,-0.8492201,0.28786096,-0.65592563,-0.8201987,-0.30777,0.7470775,0.6507975,-0.21165091,0.4614352,-0.6607526,0.74073935,-0.62627745,-0.251093,-0.5887473,0.2788688,0.87924945,0.96801543,0.24788585,-0.17184865,0.11369093,0.25228184,0.15587056,-0.6118535,-0.719746,0.18187895,0.6121463,-0.6328052,-0.027902588,-0.09354922,-0.9448359,0.36405933,0.26578355,0.90414786,-0.76171273,-0.53515714,0.3812038,-0.97871584,0.33404422,0.58902884,0.7586845,-0.7830021,-0.2201554,0.5254873,0.011170045,-0.8012514,0.06726505
setPageSize,0.557649,0.24429315,0.16480882,-0.3290117,0.0717348,0.15834308,0.5751461,-0.5988997,0.90551436,-0.021456901,0.8902396,0.91824967,0.13633695,0.15968287,-0.66672176,-0.3858738,-0.012331644,-0.61094,0.902804,0.4097493,0.09073823,0.4327309,0.68070567,0.62657464,0.7181648,0.78170496,-0.1395619,0.3605969,0.033002857,0.56808895,0.12315313,0.15651436,0.237144,0.34565237,-0.91519153,-0.1286611,0.64353293,0.9331032,-0.065861985,-0.8014749,0.053767804,-0.7168094,-0.10106459,-0.5681094,0.24844968,0.515434,-0.09295185,-0.4656328,0.54495525,0.07055183,-0.46690425,0.20110658,-0.8802593,0.84832776,0.29524142,-0.607817,0.5816676,0.4618251,-0.85413,-0.021764306,0.1276228,0.72849566,0.9257644,0.8418602,-0.97935814,0.2929578,0.4025377,-0.66935265,0.6781585,-0.6324184,-0.481533,-0.80521953,0.62544805,0.41637728,0.0013864189,0.12405914,-0.4290299,-0.64754546,0.505396,-0.69926417,-0.78522825,-0.9437543,0.15754715,0.1788255,-0.7439667,0.40164122,-0.6620726,-0.7983348,0.55905485,0.6837756,0.49711737,-0.04508163,-0.8768637,0.2160058,0.87568474,0.65040445,-0.39161575,-0.9518767,0.8761467,-0.2971346,0.76876783,-0.66688806,0.57527035,-0.21748659,0.30789328,0.7309979,0.20548266,0.06350587,0.408325,0.7169211,-0.2909725,0.35957402,0.8982806,0.23727183,0.68689644,-0.62460554,0.46860674,-0.86584,-0.14669937,0.6851184,0.31682622,-0.18490078,-0.63006705,0.95704025,0.23214132,-0.70990556,-0.05181809,0.5203703,-0.761123,-0.034165233,-0.9159944,-0.29108042,0.33009169,0.3805878,-0.1659435,0.4064813,0.3699286,-0.15989242,-0.8861329,-0.73814046,0.7718189,-0.029457826,-0.7237014,-0.0406381,-0.93120027,0.27395466,0.6529815,0.01655366,-0.80836624,-0.3994538,-0.8770025,-0.10155866,-0.4514001,0.14231904,0.89481467,0.5234976,-0.21262698,0.90979767,0.2949623,0.5614051,0.04071097,-0.64061475,0.1605055,0.5668377,0.77319497,-0.12733299,0.094049,0.80173767,-0.5536207,0.59278005,0.052177515,-0.132088,0.6830618,0.55596966,0.064330816,0.92198217,0.7206395,0.42137516,0.171475,-0.73227173,-0.39436567,-0.9179213,0.5941919,0.4250896,0.5841012,0.34115654,-0.23582527,-0.1279265,0.78210366,-0.26282385,-0.6898867,0.6520406,0.63729286,-0.73233724,-0.014094701,-0.6296631,0.612833,0.979674,0.122514084,0.7821715,-0.42482668,0.06644067,-0.15354683,0.0835137,0.08934783,0.44858462,-0.5245531,0.416271,-0.067777276,-0.07093242,0.017010406,-0.63126194,-0.19806585,-0.32708496,-0.61699057,0.7627289,0.41047153,0.3480495,0.06786325,-0.19237782,-0.1302705,-0.7841026,0.7044898,0.64411736,-0.80407685,0.9443804,0.53452957,-0.9076185,-0.59254616,0.32406035,0.9710525,0.09507754,-0.91182965,0.66325665,-0.16825126,-0.110974416,-0.7976953,0.75046885,0.25447685,0.3985601,-0.14796723,-0.60328794,-0.7301817,-0.439151,0.5231811,-0.13073114,0.14935021,-0.32507944,-0.26882547,0.64275914,0.3877753,-0.048766553,0.6906845,-0.27395758,-0.93193495,0.86951554,-0.534522,-0.16982333,-0.24800056,-0.49947277,-0.80319273,-0.22369772,-0.9139036,0.45096314,-0.61843795,0.02870863,0.34623736,0.35789302,-0.32117122,-0.66484714,0.15656045,-0.3328382,0.18953012,-0.93996596,0.8042387,0.74789333,0.446578,-0.05174653,0.16174892,0.41116259,0.33595258,0.0968226,0.25630522,0.34891668,-0.3230825,0.76266974,-0.5214897,-0.5650152,-0.57469493,-0.54031646,-0.48626703,0.19979529,0.529737,-0.5492509,-0.40336284,-0.7488587,0.82834584,-0.35833815,0.8351434,-0.8878084,-0.6862647,-0.7019708,0.20560974,0.15694195,-0.3371287,0.5460221,0.107922964,0.14509502,-0.8639249,0.4380218,-0.7159815,0.5868185,0.7015414,0.4938178,-0.9128333,-0.90830255,-0.58201134,0.89419615,0.15802056,0.03196535,-0.54432136,-0.8036461,0.6002258,-0.35685304,-0.054363046,0.23271982,-0.4370148,-0.18803662,0.0799095,-0.46487886,0.8913803,-0.44030234,0.8972049,0.05682475,0.19878155,0.64732826,-0.26519763,-0.7501136,-0.8481997,0.264911,-0.9789834,-0.67322254,0.072473876,0.44791085,-0.8903438,-0.48651376,0.59468687,-0.859323,0.85836536,-0.7876857,-0.7387577,-0.43024057,0.16515827,0.117246576,0.9897418,0.20817378,-0.52490777,0.24795796,0.2409185,0.30147412,-0.5080286,-0.92341113,0.2095853,0.7271045,-0.6651879,-0.62796795,-0.2151621,-0.97002053,-0.251996,-0.26654783,0.6009904,0.06913919,-0.85177845,0.53517234,-0.8465148,0.64417374,0.40062493,0.06441877,-0.7959439,0.5854333,0.648716,0.036876075,-0.6274207,0.020316115
getSiteSlogan,-0.34680286,0.11156395,-0.25900397,-0.19378865,-0.82880336,-0.74383914,0.47700152,-0.4787448,0.6070341,0.7476703,0.286911,0.6693843,0.3372259,-0.05024518,0.08781479,-0.81923425,-0.680738,0.131147,0.4896431,0.1126053,-0.35115516,-0.47470564,0.43301606,0.02772738,0.15082674,0.12755713,0.44280198,0.32055902,-0.4709282,-0.6454507,-0.24243465,-0.5628243,0.65947616,0.4821136,-0.748652,0.4265117,-0.08025357,0.4511069,0.33498147,0.1855949,0.5624732,-0.014643356,0.56903875,0.112683795,0.04036322,0.056067362,-0.22172451,-0.09993909,0.38645458,-0.15299854,0.3786471,0.10526219,-0.429545,-0.12084563,0.1172978,0.025888532,-0.25566885,-0.16448683,0.19677386,-0.3733531,-0.9211901,0.19391733,-0.37104082,0.6046145,-0.35998946,-0.45431522,0.45055646,-0.23561284,0.66486716,-0.38241065,0.43899244,-0.6557549,0.50837994,-0.6508498,-0.2505395,0.4346743,-0.6595867,0.09729484,0.64981055,0.9185567,-0.40074617,-0.70606357,-0.35031286,-0.7706874,-0.44279408,0.081639454,0.69816864,0.053197213,-0.8328347,0.68414575,0.7844671,0.69955695,-0.75248253,0.6552593,0.3812336,0.9600632,-0.50863236,-0.63017,0.24995576,0.50827265,0.5519211,0.5067973,-0.9432327,-0.73497784,-0.4703611,0.010437056,0.4930849,0.6069097,-0.6477442,-0.41457868,-0.3110017,0.22920644,0.6403797,0.20046547,-0.03536353,-0.6367604,-0.9550366,-0.3492185,-0.7660711,0.5057911,-0.844819,-0.14392766,-0.5279971,0.42786175,0.9162377,-0.8378861,0.85358787,0.8526381,-0.93504184,-0.18360391,-0.2798466,-0.73410493,-0.9593209,0.042768963,0.8026886,0.40863246,-0.3144589,0.48018444,-0.34576833,-0.10751167,0.19986756,0.38949862,-0.46180052,0.11764914,-0.7619678,0.09818112,0.684801,0.5255535,-0.29335842,0.13189806,-0.15043071,-0.2756698,-0.5003232,0.4820039,0.83156586,0.61732876,0.3334408,0.42935437,0.5731943,0.07843756,0.9168203,-0.10961567,-0.91330814,0.41165712,0.4663747,-0.19133873,0.8023223,0.94563997,-0.592755,0.9431657,-0.5177313,-0.3694368,0.6504789,0.49667704,0.7585372,0.77446073,-0.39585325,0.4663199,-0.14681244,-0.21549875,0.45272768,-0.42419586,0.5438277,-0.6877691,0.89515543,-0.26028755,-0.94829834,0.16203642,0.20068637,0.006283175,0.07490824,0.16514538,0.7078246,-0.981497,-0.6535773,-0.1820655,0.22591741,0.6468879,0.31832626,0.18646844,0.1265812,-0.48730284,0.48353195,0.7404655,0.6153829,0.16291893,0.504543,0.0074148327,-0.7186825,-0.5598256,-0.5774868,-0.8640995,0.39936602,0.69758785,-0.89662844,0.5148038,-0.2987191,0.6251471,0.11232738,0.37603754,-0.39744657,-0.5390393,0.69806445,-0.17926788,0.5279099,0.8502567,-0.528552,0.58279467,-0.6923227,0.229285,-0.033401385,-0.859337,0.16843063,0.2735702,-0.4924007,0.48702353,0.48218137,0.11571494,-0.8224976,-0.1914792,-0.60800993,-0.5193336,0.51617897,-0.68940276,-0.005023852,-0.34344956,-0.041838616,0.013589494,0.49877977,-0.14360167,0.22473302,-0.5316371,-0.83292806,0.5118522,0.76449263,0.2576368,0.68386257,-0.34052706,0.5755914,0.4178288,-0.09194959,0.0040291697,-0.39661688,0.10332614,-0.4907701,0.14368172,0.76456594,0.45159918,0.8227087,-0.6328378,0.70331633,0.030652344,0.59592813,-0.38415724,-0.7323512,-0.6586935,-0.66015303,0.6841082,0.5136896,0.46480006,0.28891712,-0.35842493,0.6844007,-0.5149903,-0.60602313,-0.7370971,-0.10992715,0.3995308,-0.6263188,-0.75704074,-0.10605791,0.0973106,-0.8658392,0.5100512,-0.41184515,-0.4839453,0.6494571,-0.40780032,0.7883287,-0.5345718,0.19029285,-0.3304108,0.54692936,-0.64981246,0.77017015,0.21997853,0.048039705,-0.45041028,-0.4719289,-0.77799296,0.4850868,-0.20612085,-0.6499965,0.29743958,-0.7898308,-0.8149296,-0.73136276,0.4449569,0.8488635,0.39617556,0.586103,-0.81983703,0.116231024,-0.07970084,0.016483411,-0.6135411,-0.68528724,-0.40957007,-0.2801942,-0.5162403,0.51578236,-0.035841152,0.6525643,0.51774704,-0.3936848,0.34904593,0.6891061,0.23171136,-0.4462397,0.35900676,-0.03688495,-0.7237209,-0.08443512,-0.24281988,0.63589585,0.23369125,0.4033818,-0.4527607,0.43178812,-0.56322825,0.0594669,-0.43548328,0.39621595,0.49177966,0.12434079,-0.6911011,-0.6792263,-0.64756465,-0.3897226,-0.3658656,-0.4403901,-0.39221537,-0.38044056,0.3261745,-0.4581395,0.55801135,0.7364771,-0.8744887,0.71277475,-0.2633441,0.7438508,-0.8071649,0.59004223,-0.18192735,-0.43346092,-0.34601843,0.63745934,0.9762082,-0.016943954,-0.026128136,0.06643209,-0.35694402,-0.8023144,0.51288337
setSiteSlogan,-0.14944476,-0.031832132,-0.1612743,0.23037952,-0.85895437,0.23506829,0.5852556,-0.6009055,0.8391092,0.37375534,0.24825601,-0.24267058,0.85652107,-0.0949776,-0.29597566,0.08363102,-0.45440134,0.807796,0.004119822,-0.051314786,-0.26352683,-0.6265093,-0.14774837,0.33263385,0.70995075,0.18504322,0.44552797,-0.3849293,-0.24126878,-0.11307291,-0.3270313,-0.4142469,0.3205791,0.28361297,-0.8861878,0.13449775,0.18685995,0.16183433,-0.18210301,-0.24720103,0.2885512,0.035576906,0.69612265,0.09353386,-0.03945329,0.32353774,0.04856722,0.36302835,0.6726827,-0.42267695,-0.18327384,0.28650832,-0.017203538,0.7495328,0.36167854,0.012585699,0.030360188,-0.24033187,0.38073853,-0.5098277,-0.7039783,0.5815681,0.66830945,0.7703965,-0.7822002,-0.019018434,0.78111386,-0.07724735,0.586154,-0.44768018,-0.17763016,-0.44739705,0.5174359,-0.71005154,-0.34992915,0.05400088,-0.3399364,0.4440522,0.52387786,0.294992,0.036375422,-0.8907617,-0.2619006,-0.485666,-0.6711767,0.431327,-0.60691386,-0.2931681,-0.207192,-0.0031586401,0.69701034,-0.2774599,-0.5699742,0.4506817,0.3205737,0.91518164,-0.7199013,-0.68797624,0.15338036,0.09052844,0.57071227,0.13231671,-0.64869004,-0.5169308,-0.05402767,0.3484448,0.18558851,-0.23568283,-0.5299908,-0.48597053,-0.5280029,0.21551254,0.61455184,0.28213888,0.76477027,-0.2894337,-0.54356503,-0.4163406,0.30551732,-0.15178297,0.56515115,-0.48583922,-0.08900579,0.682243,0.1425363,-0.837759,0.6640979,0.070567526,-0.6855949,0.16341828,-0.6156872,0.21164694,-0.73197085,0.21431446,0.2518261,0.09268073,0.22521797,0.23802659,-0.069283545,0.49713513,0.4489259,0.29272947,-0.5773672,-0.4320558,-0.7673359,-0.11741256,0.2781648,0.5597581,-0.0109998435,0.023589365,0.040058456,-0.1315564,-0.7301535,0.21999802,0.44875252,0.104820564,0.37701026,0.69405293,-0.48421365,-0.6440728,0.038041227,0.051361144,-0.15597793,0.80269086,0.3081577,0.11068945,0.2205784,0.41425022,-0.31688514,0.7064108,-0.1692696,0.22903936,0.60579014,0.1873149,-0.27289575,0.29007477,-0.23344736,-0.68416774,-0.047520146,-0.625708,0.22587809,-0.6039982,-0.030758135,-0.42790043,0.19839269,0.6171436,0.3470062,0.27218834,0.73524255,-0.040229708,-0.6422365,0.10587135,0.49756658,-0.51259,-0.4895553,-0.24059501,-0.17686707,0.6947609,0.13751432,0.16194166,0.018918775,-0.14034659,0.049199797,0.50036293,0.36063305,-0.34222394,-0.06921261,0.57093257,-0.077956766,-0.82381743,-0.5912626,-0.44246343,0.5848063,-0.64976835,-0.60779274,0.2470595,0.06416656,-0.13135631,-0.10239572,0.28561407,0.17024958,-0.45798618,0.15055476,-0.29457822,-0.7988467,0.91215557,-0.5816399,-0.87200683,-0.45465073,0.7262852,0.046268877,0.035326444,-0.00201368,0.08191512,-0.6091282,0.40382034,-0.32466203,0.250238,-0.540556,0.002069382,-0.21694851,-0.10761474,0.28653944,-0.3148344,0.5762582,-0.45504844,-0.037669614,-0.6901117,0.56455874,-0.09536295,0.5759813,-0.46071833,0.769891,0.50831175,-0.1031888,0.7055021,0.31553155,-0.22208832,0.5224264,-0.12328468,0.09241599,0.6926283,-0.38620627,0.450505,-0.39140347,0.12443581,0.18993062,-0.12694404,0.6535883,-0.4401309,0.64166486,-0.031583186,-0.29876128,-0.16376424,0.38987073,0.15756883,-0.15884987,0.6906403,0.38746548,-0.2857453,0.67845744,-0.80433434,0.5391667,-0.085599974,-0.104041256,0.85532343,-0.089984916,0.37058118,-0.050765127,-0.3022297,-0.63422304,-0.33649844,0.12129653,0.14285024,-0.4998606,-0.7481432,0.05253517,-0.5535128,0.7839858,-0.14289466,0.6432648,-0.30019236,0.4256432,-0.24454522,-0.106627345,0.4835196,-0.6615151,0.33921808,-0.34881365,-0.5112631,-0.4077563,0.009279509,0.8451046,0.6061766,-0.6327207,-0.41420993,0.11604212,0.67474633,0.8986933,0.6159787,0.6998239,-0.75052285,-0.0094681345,0.66301054,0.2444126,0.69013876,0.105627224,-0.3645689,-0.696949,-0.3752472,0.6469435,-0.065014936,0.69141793,0.118163936,0.106943995,-0.3234289,0.33807835,-0.16289414,-0.7119231,0.13522057,-0.89654946,-0.7376791,0.53862536,-0.28318334,-0.91566575,0.12921236,0.776822,-0.55555874,0.6004514,-0.066487335,-0.19728774,-0.7886042,0.31391424,0.021613263,0.6638228,-0.441338,-0.6755824,-0.6537423,-0.11085256,-0.14129876,-0.38516968,-0.8601789,-0.71780354,0.65712684,-0.69893456,-0.15905234,0.7159981,-0.32299554,0.5857025,0.024866685,0.2614073,0.021741688,-0.406186,-0.21322432,-0.29685876,0.38934585,0.42908412,0.5680558,-0.22085266,0.6477426,-0.34117907,-0.5843164,-0.49098727,0.03537398
get,-0.26498345,0.060836554,0.5934952,0.5774425,-0.05088909,-0.3400006,0.7988437,0.47402415,0.70903176,0.456398,0.35469374,-0.27353853,0.7156986,0.7870752,0.08684703,0.10906067,0.6927979,0.38704914,0.010169176,-0.19923964,0.016945858,-0.25730821,0.29593295,0.2729959,0.067511305,-0.31304604,0.41230613,-0.3783055,-0.6634044,-0.4400532,0.4002154,-0.008735642,-0.20443824,-0.59608126,-0.4274456,-0.2880007,-0.4175237,0.42225933,0.30999768,0.4278243,-0.5516974,0.46911332,0.6556663,0.49630982,-0.78687716,0.45581973,0.6530382,0.13605037,0.636029,-0.26624727,-0.48625964,0.30682728,0.71978474,-0.74134696,-0.6105741,0.55014765,-0.89344406,-0.3761674,-0.7468413,0.9560206,0.8130853,-0.12244164,-0.11398112,0.37195733,0.015406504,-0.033844173,-0.74620163,0.4943437,-0.27656478,0.6585628,-0.25462732,0.033284463,-0.17585121,0.25256613,-0.58416474,-0.5379287,0.4714424,0.14593141,0.40601432,0.499058,0.08440452,0.74600273,0.15367922,0.19193313,-0.55102205,0.045068152,0.90680283,-0.8301209,-0.6854712,-0.33098042,0.75950426,0.2532604,-0.5923274,-0.08939897,0.4950555,0.5184232,-0.3742189,0.688184,0.43919754,-0.29874557,-0.5481329,0.5360023,-0.46598086,0.55034035,0.26355475,-0.5907741,0.1351138,-0.5168735,-0.1936803,-0.7670047,-0.5129789,0.3655604,-0.6439005,-0.80562264,-0.7543837,0.8129557,-0.62449485,0.01235605,0.28834704,-0.6715158,-0.96800023,-0.28045344,0.5934515,0.4424534,0.8840797,-0.398963,0.45923695,0.94976103,-0.015339993,-0.6133353,-0.3740619,0.21259825,0.1409899,-0.5894984,-0.13375346,-0.2667771,0.096912675,0.6385766,0.65451723,0.07715842,-0.8332821,-0.8037127,-0.76107556,0.21321927,0.2914183,0.23702213,-0.16438079,-0.51829743,-0.13645102,-0.41008654,-0.3798549,0.05833188,-0.118086085,0.3570509,0.18553983,0.51986116,-0.09248538,0.24895224,-0.75649774,-0.60749066,0.7134008,-0.57713175,-0.85326695,0.45834976,-0.34946343,-0.78147066,0.6210998,0.16966628,0.40877056,-0.05444192,0.1451391,0.47437233,0.37084866,0.14874616,0.6244131,-0.29409862,0.042186,0.5496943,-0.02767592,0.45396185,-0.5909613,-0.8001927,0.3778021,0.33794722,0.55546457,0.26440144,-0.72890514,0.38309526,-0.42141455,0.6408315,-0.25469637,-0.6810299,0.3114639,-0.57564753,-0.58189744,-0.17695074,0.40223014,0.44032446,-0.25897023,0.406325,-0.021737121,0.5660219,-0.103226036,0.65898395,0.45818692,-0.3855782,0.47513998,0.8062643,-0.7671966,-0.06745757,-0.6997531,-0.78252083,0.91312623,-0.30818468,-0.6047522,-0.77597654,-0.38004848,0.41470262,-0.15244679,-0.015935503,0.6254416,-0.5345203,-0.1897794,-0.06203839,0.34999603,-0.20127103,-0.7762603,0.91716325,-0.3354185,0.5732917,0.35535306,0.22834544,0.89323056,-0.4124592,0.73858863,-0.13550249,-0.34410432,0.48915964,-0.53636587,-0.6046474,0.27834034,0.35239857,0.2228,-0.33206767,0.33646202,0.8465698,-0.48038882,0.15377147,0.5469585,0.16026969,-0.37318683,0.6817469,0.2642852,0.47079298,0.24676935,0.8856932,0.3504293,-0.090381056,-0.020135745,0.48450804,-0.31590477,-0.1668252,0.41584864,0.76225394,0.011433639,-0.1049487,-0.08305888,0.5424422,0.22933172,-0.42869386,0.26655298,0.53062093,0.8928598,-0.34210557,0.013911717,-0.82218736,-0.7405586,-0.10587686,-0.4376197,0.6864874,0.23064381,-0.0021237936,-0.38418403,0.5140388,-0.70538366,-0.6615167,-0.2360393,0.7131626,0.38171232,-0.31845987,0.39624822,-0.20280963,-0.393969,-0.25026718,0.07942045,-0.15751724,0.090745315,0.0072447285,-0.5332737,0.47585058,0.98675984,-0.64621323,-0.23280187,0.48374563,-0.2127592,-0.25521123,-0.21244884,-0.32564965,0.14235704,0.2622345,0.13180564,-0.3385845,-0.47638127,-0.32587582,-0.7359025,-0.7190029,-0.7011064,0.54025114,-0.252029,-0.38082498,-0.097891696,0.46517795,0.14925711,-0.525754,-0.43292755,0.4304201,-0.66277933,-0.12559262,0.3645432,-0.62250453,-0.02116204,-0.22644612,-0.31711343,0.061466858,0.6009173,-0.30400205,-0.29650098,0.3835877,0.33350793,0.5278026,-0.5989801,0.07129019,0.29944086,-0.77101105,0.40073276,-0.5280664,-0.2097162,-0.22595003,-0.11442343,0.046048775,0.5048907,-0.61278504,-0.80219126,0.7411303,-0.35528266,0.3417268,-0.4405381,-0.38716537,0.9000664,0.37443748,-0.7798116,-0.21020177,0.46411878,0.4920298,0.44696227,0.27774256,-0.6038445,0.18992762,-0.0640206,-0.15942928,0.0771119,-0.06768185,0.91172695,-0.66948825,0.6880855,-0.8128655,0.6825485,0.53584397,0.26552528,0.037685886,-0.4027611,-0.46661237,0.1738072,-0.30633748
get,-0.26498345,0.060836554,0.5934952,0.5774425,-0.05088909,-0.3400006,0.7988437,0.47402415,0.70903176,0.456398,0.35469374,-0.27353853,0.7156986,0.7870752,0.08684703,0.10906067,0.6927979,0.38704914,0.010169176,-0.19923964,0.016945858,-0.25730821,0.29593295,0.2729959,0.067511305,-0.31304604,0.41230613,-0.3783055,-0.6634044,-0.4400532,0.4002154,-0.008735642,-0.20443824,-0.59608126,-0.4274456,-0.2880007,-0.4175237,0.42225933,0.30999768,0.4278243,-0.5516974,0.46911332,0.6556663,0.49630982,-0.78687716,0.45581973,0.6530382,0.13605037,0.636029,-0.26624727,-0.48625964,0.30682728,0.71978474,-0.74134696,-0.6105741,0.55014765,-0.89344406,-0.3761674,-0.7468413,0.9560206,0.8130853,-0.12244164,-0.11398112,0.37195733,0.015406504,-0.033844173,-0.74620163,0.4943437,-0.27656478,0.6585628,-0.25462732,0.033284463,-0.17585121,0.25256613,-0.58416474,-0.5379287,0.4714424,0.14593141,0.40601432,0.499058,0.08440452,0.74600273,0.15367922,0.19193313,-0.55102205,0.045068152,0.90680283,-0.8301209,-0.6854712,-0.33098042,0.75950426,0.2532604,-0.5923274,-0.08939897,0.4950555,0.5184232,-0.3742189,0.688184,0.43919754,-0.29874557,-0.5481329,0.5360023,-0.46598086,0.55034035,0.26355475,-0.5907741,0.1351138,-0.5168735,-0.1936803,-0.7670047,-0.5129789,0.3655604,-0.6439005,-0.80562264,-0.7543837,0.8129557,-0.62449485,0.01235605,0.28834704,-0.6715158,-0.96800023,-0.28045344,0.5934515,0.4424534,0.8840797,-0.398963,0.45923695,0.94976103,-0.015339993,-0.6133353,-0.3740619,0.21259825,0.1409899,-0.5894984,-0.13375346,-0.2667771,0.096912675,0.6385766,0.65451723,0.07715842,-0.8332821,-0.8037127,-0.76107556,0.21321927,0.2914183,0.23702213,-0.16438079,-0.51829743,-0.13645102,-0.41008654,-0.3798549,0.05833188,-0.118086085,0.3570509,0.18553983,0.51986116,-0.09248538,0.24895224,-0.75649774,-0.60749066,0.7134008,-0.57713175,-0.85326695,0.45834976,-0.34946343,-0.78147066,0.6210998,0.16966628,0.40877056,-0.05444192,0.1451391,0.47437233,0.37084866,0.14874616,0.6244131,-0.29409862,0.042186,0.5496943,-0.02767592,0.45396185,-0.5909613,-0.8001927,0.3778021,0.33794722,0.55546457,0.26440144,-0.72890514,0.38309526,-0.42141455,0.6408315,-0.25469637,-0.6810299,0.3114639,-0.57564753,-0.58189744,-0.17695074,0.40223014,0.44032446,-0.25897023,0.406325,-0.021737121,0.5660219,-0.103226036,0.65898395,0.45818692,-0.3855782,0.47513998,0.8062643,-0.7671966,-0.06745757,-0.6997531,-0.78252083,0.91312623,-0.30818468,-0.6047522,-0.77597654,-0.38004848,0.41470262,-0.15244679,-0.015935503,0.6254416,-0.5345203,-0.1897794,-0.06203839,0.34999603,-0.20127103,-0.7762603,0.91716325,-0.3354185,0.5732917,0.35535306,0.22834544,0.89323056,-0.4124592,0.73858863,-0.13550249,-0.34410432,0.48915964,-0.53636587,-0.6046474,0.27834034,0.35239857,0.2228,-0.33206767,0.33646202,0.8465698,-0.48038882,0.15377147,0.5469585,0.16026969,-0.37318683,0.6817469,0.2642852,0.47079298,0.24676935,0.8856932,0.3504293,-0.090381056,-0.020135745,0.48450804,-0.31590477,-0.1668252,0.41584864,0.76225394,0.011433639,-0.1049487,-0.08305888,0.5424422,0.22933172,-0.42869386,0.26655298,0.53062093,0.8928598,-0.34210557,0.013911717,-0.82218736,-0.7405586,-0.10587686,-0.4376197,0.6864874,0.23064381,-0.0021237936,-0.38418403,0.5140388,-0.70538366,-0.6615167,-0.2360393,0.7131626,0.38171232,-0.31845987,0.39624822,-0.20280963,-0.393969,-0.25026718,0.07942045,-0.15751724,0.090745315,0.0072447285,-0.5332737,0.47585058,0.98675984,-0.64621323,-0.23280187,0.48374563,-0.2127592,-0.25521123,-0.21244884,-0.32564965,0.14235704,0.2622345,0.13180564,-0.3385845,-0.47638127,-0.32587582,-0.7359025,-0.7190029,-0.7011064,0.54025114,-0.252029,-0.38082498,-0.097891696,0.46517795,0.14925711,-0.525754,-0.43292755,0.4304201,-0.66277933,-0.12559262,0.3645432,-0.62250453,-0.02116204,-0.22644612,-0.31711343,0.061466858,0.6009173,-0.30400205,-0.29650098,0.3835877,0.33350793,0.5278026,-0.5989801,0.07129019,0.29944086,-0.77101105,0.40073276,-0.5280664,-0.2097162,-0.22595003,-0.11442343,0.046048775,0.5048907,-0.61278504,-0.80219126,0.7411303,-0.35528266,0.3417268,-0.4405381,-0.38716537,0.9000664,0.37443748,-0.7798116,-0.21020177,0.46411878,0.4920298,0.44696227,0.27774256,-0.6038445,0.18992762,-0.0640206,-0.15942928,0.0771119,-0.06768185,0.91172695,-0.66948825,0.6880855,-0.8128655,0.6825485,0.53584397,0.26552528,0.037685886,-0.4027611,-0.46661237,0.1738072,-0.30633748
put,0.30678335,0.28960907,0.67361903,0.64081264,-0.19654213,0.06818814,0.45457712,0.33017322,0.79791486,0.15574268,0.5143782,-0.43033892,0.48641288,-0.54000926,-0.020996213,0.53109586,0.03710884,0.39415005,-0.43828675,0.09961065,0.045609683,-0.08521835,-0.032373708,0.20259896,0.5463456,0.012672197,0.3269265,-0.531597,-0.21174045,-0.4198437,0.58991027,0.2216385,-0.20462152,-0.33023405,-0.042363815,-0.42945188,0.09789054,0.3750093,-0.05637893,0.07959019,-0.36964622,-0.11294858,0.24256214,0.19353075,-0.45006037,0.20293726,0.34135887,-0.46007735,0.3718537,-0.4710046,-0.10955143,-0.13133056,-0.25993216,-0.29104868,0.16731057,-0.19485888,-0.50912654,-0.44734725,-0.23981613,0.35805076,-0.20619243,-0.3815229,-0.39642173,0.27493274,-0.36971185,-0.20976683,-0.48478478,0.40020484,0.30218625,-0.11249748,0.025615357,-0.3667735,0.3401303,-0.21462204,-0.1501453,0.40229186,0.59040105,0.48462948,0.07561309,-0.0824627,-0.08202551,0.3831312,-0.6609937,0.7265771,0.059348807,0.07578481,0.11152337,-0.21960449,-0.39134827,-0.17209814,0.55111253,-0.29453537,-0.53841007,0.1724499,0.32102937,0.2834217,0.35266742,0.5270752,0.45427537,0.16713847,0.2455293,0.59250677,-0.8463118,-0.0024528783,0.22793572,0.19013557,0.41322702,0.0743472,-0.07828595,-0.48896033,-0.59085715,0.5346033,0.3030942,-0.656975,-0.08020524,0.4039464,0.45792744,-0.15276207,0.2923112,-0.75660074,0.026446344,-0.3359232,0.24980517,0.54743487,0.019506987,-0.23680095,0.307052,0.5643897,0.49354553,-0.3298633,-0.18105331,0.16654931,0.09072939,-0.65907025,-0.023204599,0.04887619,0.58597773,0.42034853,0.65539294,0.23477024,-0.68617785,-0.293143,-0.19983211,-0.43427962,0.26409772,0.29190388,0.22908589,0.2845804,0.35277885,0.009618487,-0.19345708,-0.21255364,-0.3686326,0.67650294,0.017684525,-0.30718428,0.1421866,0.10174781,-0.7208423,-0.49399894,0.8040195,-0.27391076,-0.17749268,0.40980998,-0.38006067,-0.7716344,0.5909307,0.4652735,0.21627747,0.044025436,-0.24589509,-0.09814932,0.5047104,0.6189873,0.74865204,-0.23794729,0.16538121,-0.11828145,0.22858518,-0.5859083,-0.47354263,-0.73740137,0.13497408,0.66376364,0.515981,0.07731941,-0.22838688,0.2585994,0.21571769,-0.06559823,0.10344735,-0.30764222,0.63556683,-0.4252413,0.2901633,-0.4322708,-0.46662354,0.36369208,-0.4941547,0.2856954,0.06441824,0.30356988,-0.20032652,0.77000403,-0.06628403,-0.42921466,-0.12707129,0.19088778,0.22822106,-0.5189341,-0.6429918,-0.54291475,0.7446901,-0.69367313,0.1816666,-0.6542063,-0.26199588,-0.4281747,-0.77720255,0.53158414,0.5544424,-0.26789704,-0.41025472,-0.30326927,-0.09064464,0.298372,-0.72140133,0.38274366,-0.79551363,0.7554186,0.3151788,-0.18697429,0.29053634,0.1787203,0.35240167,0.33697668,-0.27806234,0.26839662,-0.23971145,0.069570035,-0.17326349,0.6681007,0.58079475,0.49162975,0.23012394,0.6134247,-0.32788956,0.1995747,-0.1282222,0.045659,0.18491645,0.27628455,0.6285916,0.6622138,-0.21610865,0.6352064,0.6475158,-0.020065047,0.22425602,-0.16316576,-0.40345168,-0.052196234,0.080236204,0.75328696,-0.74684405,0.11046159,0.035423838,0.09622872,0.3421073,0.013863765,0.16473909,0.65912855,0.0923374,-0.024303783,-0.31971332,-0.40975583,-0.67998606,0.10487816,0.13722453,0.14777309,0.118323684,-0.19767809,-0.60543233,0.18203054,-0.72897416,0.54537094,-0.5211875,0.095119506,0.036176432,0.22839214,-0.6298244,-0.3733707,0.0458379,0.6608683,0.04369506,-0.4345213,-0.23113577,-0.0262985,0.32640854,0.30074897,0.33144557,-0.072750695,-0.06468496,0.9187896,-0.30188444,0.4769533,-0.15574864,0.32508343,-0.1242014,0.24074134,-0.26440048,-0.035505474,0.54028416,0.18290567,-0.37269092,-0.5756428,-0.5599483,0.4333999,-0.36335415,-0.5195162,0.3474831,-0.3151482,0.4510088,-0.081910595,-0.057662323,0.18526524,-0.36020178,-0.44051886,-0.16118975,-0.7222068,0.047155984,-0.34500322,0.06308816,-0.04376779,0.01552169,-0.49261123,-0.4005769,0.12878647,-0.6518611,0.27582613,-0.83158463,-0.05744767,0.1897138,-0.47037232,-0.7047893,0.07836858,0.18691196,-0.29191524,-0.1306676,-0.33929977,-0.5483258,-0.8077283,-0.7267516,-0.36129296,-0.19087891,0.011724707,-0.68066853,-0.81652266,0.32854128,0.24599315,-0.4737809,-0.20035739,-0.5954527,0.6621161,-0.72989976,0.6881911,0.019685123,-0.58691424,0.163268,-0.5397954,-0.059935,-0.039598998,0.88666296,-0.5369422,0.6246398,-0.4536066,0.603443,0.054061726,0.038826685,0.2499032,0.11892001,-0.5273383,-0.33188206,0.0009795912
getPost,-0.6806843,-0.7466979,-0.31700647,0.48548955,0.3753935,-0.012212422,-0.8039471,-0.75805604,-0.18731429,0.32409117,0.5034891,-0.29593462,0.7204538,-0.7864582,-0.5419005,-0.7458545,-0.102988414,-0.5141461,-0.05706291,0.107230894,-0.0784044,0.42406267,-0.69438195,-0.81171393,0.32395434,-0.5467378,0.24685922,-0.29724157,0.06557823,0.23350695,0.63626105,0.5247563,-0.07007997,0.63330543,0.85724044,-0.4257239,-0.50586295,0.91134936,-0.61509913,-0.4496878,-0.5462005,-0.39558476,-0.933043,-0.793339,0.022783943,-0.038296293,-0.31806895,-0.937366,-0.4839158,-0.76402533,-0.25103423,-0.976122,-0.13847078,0.4707393,0.82712644,0.3385545,-0.10693042,-0.37842697,0.046071082,-0.548105,-0.7572561,0.041947972,-0.76339793,-0.9343108,-0.5234601,-0.902446,-0.34580356,0.32175317,0.5357817,-0.4502624,-0.024217494,-0.394045,0.46956515,-0.7227124,0.77217543,-0.97852117,-0.44639027,0.61820406,-0.53290564,-0.4700212,-0.28663218,0.9107801,-0.7348783,0.8653912,-0.39148095,-0.67329615,-0.7573949,0.28962004,-0.91816133,-0.8747436,0.7137496,0.7707126,0.49803567,0.43365958,-0.3174898,-0.5216189,0.651046,0.9785714,0.28946626,0.9017086,-0.04595817,-0.65514976,0.24077888,-0.38764715,-0.71489865,0.34643108,0.12189235,0.88681877,0.44561958,-0.0849609,0.77434766,0.28096312,0.63776374,0.5278175,-0.4065277,-0.3977564,0.7263671,0.59714013,-0.70504403,-0.46087793,0.39097765,-0.49778488,0.22820197,0.76622486,-0.48701805,0.93494385,0.3216702,-0.37582332,0.72652626,0.81884456,0.7823061,0.31609634,-0.5591325,0.05160141,0.36959773,0.40017596,0.68761015,0.574338,0.5222678,-0.22808364,-0.6201263,-0.16975412,0.6998655,-0.0516902,0.6702878,0.78393346,-0.49860427,0.04842182,0.062021956,-0.3171604,-0.26358378,-0.7924027,-0.6201377,0.580328,0.4726245,-0.5605397,-0.48108736,-0.51649797,-0.8626276,-0.35596603,0.29171216,-0.6886209,0.8556854,0.09203521,0.29096717,-0.28608343,-0.3499807,0.4131156,0.5108891,-0.025488144,-0.74037325,-0.6938064,-0.78858286,0.6851119,0.98345196,-0.53138524,-0.33419305,-0.86477995,0.5436694,-0.6455964,-0.48839247,-0.26738584,-0.8710387,0.8618146,0.062164582,-0.8039123,-0.07092948,-0.54293257,-0.9408225,-0.5675341,-0.5726168,-0.79120004,0.3463753,0.44574115,0.8906121,-0.01957371,-0.904509,0.4320189,0.18795529,-0.06616827,-0.25849894,-0.23014542,-0.3294207,-0.48633543,-0.15914692,-0.28375107,-0.8534562,-0.2710908,-0.61888254,-0.46749738,-0.59450126,-0.8516881,0.24782929,-0.76673144,-0.65185595,0.12808278,0.922198,0.23008063,-0.4216312,0.6436805,0.021028623,0.51332915,-0.052921575,0.931317,0.6832664,-0.30986726,-0.37325612,0.7889748,-0.053359374,0.59978366,-0.10233479,-0.36487198,-0.51559836,0.7692082,0.3395055,0.39100832,0.018847711,-0.81863046,-0.9350065,-0.49682924,0.12954175,0.32939208,0.84227973,0.33744335,0.63327307,0.9038664,-0.63566315,0.34927434,-0.9753504,0.35854688,-0.35629436,0.5805141,0.36740187,0.87120426,0.06505868,-0.62566394,0.7041281,-0.33611348,0.265856,-0.520296,0.23615879,-0.48284698,-0.7906398,-0.44078633,-0.16092362,0.8495332,-0.31917816,0.69211084,-0.41243938,0.42558926,0.090990365,0.0021465644,-0.6767038,0.7285909,0.8668277,0.23836327,-0.33459705,-0.09274944,-0.45920667,0.2737511,0.73442113,0.53255916,0.55106366,0.39849788,0.39685664,0.54283035,0.21857116,-0.6208496,0.5600537,0.7102016,-0.081956305,0.344302,0.79202366,-0.8265965,0.33496028,0.22337556,-0.90081245,0.8902473,-0.66188675,0.6241533,-0.7089491,0.8188362,-0.54425216,-0.78937566,-0.61882967,0.97810185,0.6673659,-0.027848644,-0.6151848,0.6444084,0.6101891,-0.084098145,0.6753126,0.7206758,0.55419093,0.03737288,-0.83023465,0.4346566,-0.41318798,0.07347898,-0.049392797,0.13581946,0.63329595,0.6553469,-0.09572631,-0.7074555,-0.19975042,-0.12129912,0.5953998,-0.06613836,-0.7191576,-0.56601524,0.8639777,-0.35697606,-0.67227054,-0.21201943,0.22431764,-0.42846647,-0.8214388,0.8325503,0.10827367,-0.09966225,-0.1326579,-0.31264102,0.45084333,0.17561975,0.80465543,-0.5429572,0.20850396,-0.054127812,-0.67323494,-0.5739478,0.4175145,-0.73065215,-0.414916,-0.09052423,-0.058617078,0.4412279,-0.7769573,0.2274937,0.533929,-0.22709066,-0.22107285,-0.53198117,-0.3957731,-0.3950547,-0.20482153,-0.8244874,0.28539988,-0.08003117,0.3054419,0.03368657,0.7246427,-0.5391282,-0.050750412,0.4449613,0.05611232,-0.3112635,0.92567897,-0.33728236,0.2744106,0.050076798,-0.80522275,0.42517996
getPublishedPostByPermalink,-0.6278589,-0.38071656,-0.683448,0.38100988,0.2667395,0.18841104,-0.7815651,-0.70898044,0.3130471,0.30072743,0.80248845,-0.13510717,0.7723253,-0.93093824,0.32384768,-0.76086676,-0.31385913,0.2975596,-0.059268042,-0.3940543,-0.08445388,0.44610953,-0.60893905,-0.86759293,0.20057228,-0.9164619,0.4201837,0.035910204,0.6387726,0.22217464,0.38523805,0.49113235,-0.33922124,0.6934493,0.82628757,-0.06682904,-0.33573964,0.9578184,-0.76389456,-0.6919933,-0.69043076,-0.012023641,-0.96304095,-0.7711133,-0.1124163,-0.08726519,-0.6601553,-0.9420425,-0.64677656,-0.8582842,-0.43472967,-0.9027767,0.37260374,0.78738594,0.75161946,0.68153965,0.41362518,-0.20475754,0.1618478,-0.5894146,-0.18710569,0.0763381,-0.6318842,-0.93100715,-0.77604485,-0.902373,-0.6395517,0.5178261,0.8468217,0.4623645,0.42381325,-0.048505664,-0.182643,-0.83013296,0.67159796,-0.97428614,-0.67215407,0.8316935,-0.5092395,0.23662946,-0.82437277,0.9148533,-0.900368,0.7332814,-0.12842713,0.10016647,-0.72900003,0.2174788,-0.94230044,-0.8543757,0.845924,0.5626155,0.7956785,-0.087170586,0.13902916,-0.2899557,0.6673829,0.8329972,0.6827397,0.9195305,-0.7624361,-0.69202816,0.65461266,0.05155763,-0.8093214,0.71946156,-0.6971179,0.8422486,0.6641636,0.16647512,0.8672507,-0.3546391,0.65172964,-0.4246701,0.05469226,-0.22344273,0.74872637,0.14362314,-0.2887683,-0.357611,0.5913157,-0.3906973,0.7350498,0.6677726,-0.68536294,0.6752995,-0.4274183,0.15285984,0.8981164,0.90555614,0.7883054,0.47336894,-0.40742636,-0.22176954,0.6422329,0.6685068,0.50396407,0.15834413,0.035488486,0.11916119,-0.3358487,-0.5685965,0.7112413,0.0073141158,0.78311384,0.7829295,-0.73593646,-0.42224407,-0.3245266,-0.03881461,-0.47337914,-0.78925604,-0.69149905,0.7280287,0.90678185,-0.6437987,-0.28965178,-0.09270845,-0.8501595,-0.5985429,0.46567568,-0.69149756,0.70028394,0.5337008,-0.13010898,-0.1759602,-0.6617514,0.78480804,0.67099285,-0.07755063,-0.8523183,-0.5221077,-0.831716,0.70777124,0.9897682,-0.67652404,-0.100056075,-0.8118385,0.69053113,-0.82718116,-0.6863256,-0.5778128,-0.857556,0.87376404,-0.5052239,-0.8040303,0.29502243,-0.7489307,-0.94490516,-0.6822929,0.0853225,-0.82106364,0.2720931,0.5330515,0.7056402,0.012413509,-0.8565937,0.79896235,-0.012393344,0.21328926,0.3130685,-0.39917716,-0.47215936,-0.40095595,-0.47938603,-0.32770526,-0.7614359,-0.11572944,-0.23482493,-0.40270776,-0.3162943,-0.8991897,0.19130188,-0.52797616,-0.650591,0.14671233,0.8235228,-0.020533936,-0.18170616,-0.09082456,-0.6426031,0.34935805,-0.72869575,0.6710199,0.72376233,0.1244676,-0.8167685,0.8628297,-0.48168054,0.4622234,-0.5309532,-0.523873,-0.719062,0.5856101,0.56954896,0.2506528,0.12059289,-0.52444845,-0.95083416,-0.76198953,-0.044092122,0.47136497,0.9298211,0.30334595,0.8243449,0.9553597,-0.76880443,0.4375468,-0.9644072,0.31815803,-0.53111434,0.8467052,-0.19765788,0.8062889,-0.084484935,-0.36810875,0.62816715,-0.09809706,0.38850832,-0.35804912,0.0020462275,-0.6271,-0.5801364,-0.307798,-0.06771256,0.67930853,0.1086414,0.52820396,0.12382312,0.1477359,0.6813437,0.24990553,-0.45415124,0.79361963,0.7292364,0.26853,-0.62805724,-0.0042637233,-0.1183829,-0.5991955,0.8186629,0.36695355,0.2413516,0.7450142,0.65150654,0.74547607,0.0014380366,-0.73277587,0.7427112,0.87254995,0.24243674,-0.57319224,0.2121273,-0.4899103,0.10307108,-0.5779281,-0.9102973,0.879964,-0.615516,0.881922,-0.6455648,0.8387344,-0.081775606,-0.74439895,-0.56622994,0.9809647,0.75955224,0.44341817,-0.6335101,0.81928736,-0.03737568,0.047009677,0.3363602,0.84613925,0.068327844,-0.17150185,-0.836884,0.231711,-0.3038717,0.3044542,0.33208767,-0.12385426,-0.08354859,0.88395643,-0.29501516,-0.7180509,0.4390683,-0.21510774,0.86443126,-0.23966995,-0.8818126,-0.6171971,0.3929605,-0.3287353,-0.78337824,0.08974059,0.4076294,-0.7265172,-0.80050397,0.9397331,0.500709,0.72059226,-0.22172216,0.17151879,0.5843863,0.13527757,0.8490075,-0.91345274,0.6922933,0.568684,-0.11863415,-0.79632103,0.6974041,-0.7415832,-0.28536987,0.12830774,0.5709027,0.270976,-0.76656497,-0.44244134,0.5007999,-0.0037032776,-0.79032135,-0.6346253,-0.6608267,-0.19756246,0.35388285,-0.19250934,0.8175149,0.5893817,0.30964702,0.6556097,-0.041221797,-0.06387505,-0.68947625,0.0021655066,0.08397421,-0.72794557,0.82393694,-0.004224792,-0.32032928,-0.04750731,-0.62068367,-0.004639567
createPost,0.040854923,-0.6664639,-0.41701162,0.4777869,0.6576333,-0.00010327995,0.059719995,-0.46235478,0.31000137,0.09461997,0.7073474,0.124662936,0.5234452,-0.895418,0.43281162,-0.29379374,0.36710465,-0.4787733,0.3254263,-0.5549588,-0.3949508,-0.25276756,-0.63951576,-0.95022774,-0.17475615,-0.26320404,-0.48455957,-0.5936489,0.33673608,-0.5449108,0.94396454,-0.24946497,-0.58045304,0.61230385,0.7278918,0.30770028,0.30291754,0.86992574,-0.014430461,-0.7928897,-0.63046575,0.09466567,-0.93194085,-0.9532411,0.042990103,-0.46219525,-0.5648721,-0.6195396,0.07055461,-0.0817195,-0.11029239,-0.43610975,-0.1562084,0.8303112,0.016461901,0.36825126,0.1922363,0.05868034,0.92707,-0.85002387,-0.59719175,0.3075634,-0.6608888,-0.8340697,0.22491053,-0.13405043,-0.440423,0.78138274,0.81218886,0.45449746,0.44741508,0.053619772,-0.049910128,-0.14735055,0.2551236,-0.9724827,-0.4125189,-0.09172158,0.38999256,0.36115554,-0.81810325,0.6444648,-0.8870499,0.292788,-0.9485897,0.1620343,-0.7919183,0.027689874,-0.5046603,-0.8947488,0.6193042,0.9534124,-0.20456961,0.053330295,0.33761755,-0.22211322,-0.5539615,0.5743328,0.84120876,0.72087157,-0.25159198,-0.5194618,0.07590391,-0.1282881,-0.20600262,0.46311077,-0.42136157,0.5775595,0.6117295,0.05299273,0.19955562,0.13593969,0.275317,-0.015336454,-0.50180095,0.20919907,0.19539912,0.10979054,-0.2578489,0.23722103,0.4036653,-0.51644146,-0.36082745,0.6626936,-0.16939494,0.6441736,-0.94953763,0.6701199,0.38794777,0.4409329,0.4207378,0.60394776,-0.50973445,-0.7043794,0.23100089,-0.29281938,-0.17573033,0.32782042,-0.11413436,0.28450075,-0.23986119,0.013038516,0.90030676,0.53141874,0.5128315,0.5737567,-0.8728508,0.3355285,-0.73800725,0.25807387,-0.81231934,-0.6675939,-0.39115292,0.23979181,0.3755951,-0.9016701,0.63759804,0.12509698,-0.25924546,-0.4774542,-0.3762467,-0.49522886,0.39487875,0.65956986,0.66291213,0.5466766,-0.3899978,0.59107226,-0.12480377,0.5817887,-0.4308013,-0.16680372,-0.64451593,0.46169114,0.73292667,0.26724318,-0.059524693,0.17503028,0.5468685,-0.97204876,-0.5541857,-0.76431006,-0.11011039,0.8650949,0.60298276,-0.48543054,0.5905984,-0.39489105,-0.7720699,-0.8870238,-0.89151764,-0.8015155,-0.035120875,0.4575435,0.6275521,0.0030039474,-0.9688179,0.51049143,0.7811939,0.033596233,0.1229952,-0.13370392,0.14390787,-0.7954752,0.019301958,0.054400247,-0.7790551,-0.006507024,-0.5671607,-0.16640277,-0.673571,-0.2554505,-0.49539644,-0.10267543,-0.63029367,0.40135393,0.92731684,-0.592835,0.34683552,0.50959975,-0.75613284,0.0646456,0.6758197,0.4118649,0.520341,-0.6556596,-0.6225562,0.79886055,-0.20678115,0.019932926,-0.79500455,0.27939653,-0.46617508,0.49821272,0.47791505,0.0707499,-0.055900767,-0.8459047,0.081515506,-0.89747953,-0.07471326,0.7208566,0.45977813,-0.27123094,0.9275832,0.94025695,-0.43630835,-0.38268536,-0.97914314,-0.39360082,-0.3693334,0.25131637,0.39964,0.3442452,-0.18810324,-0.83513194,0.90692675,-0.0919288,0.80746907,-0.4503522,-0.3512814,-0.59638894,-0.6888438,-0.76448584,0.60989356,0.065788805,0.64704245,0.7218208,0.2743406,0.23281974,-0.060855653,-0.6765051,-0.7772393,0.7240716,0.7763678,0.14465883,-0.79181385,-0.012368478,0.0071312636,-0.28717887,0.8521481,0.2569801,0.0047644563,0.8380484,0.10271881,-0.60746455,0.7949744,-0.25155285,0.7257517,0.40339366,0.5482532,-0.7563222,0.3232668,-0.9020344,0.3559787,-0.07884747,-0.42210838,0.7141801,-0.5895562,0.85386086,-0.6210512,0.30061966,0.0069665685,-0.78602874,-0.67201203,0.91930944,0.27796513,-0.748901,-0.5676005,0.65426624,0.72280496,0.3818746,-0.3995263,0.965979,0.34453273,-0.37389225,-0.74723935,0.6934261,-0.54295087,-0.628031,0.40242362,0.2924852,-0.36598095,0.5674085,-0.35511446,-0.8722987,-0.12481287,0.31302744,0.67240727,0.60604316,-0.7157706,-0.5591779,0.004971206,0.7251111,-0.65486825,0.011476584,0.5414957,-0.40269062,-0.46635187,0.91535527,0.3258309,-0.34030658,-0.33901677,-0.59120226,0.76881707,-0.09363833,0.8862925,-0.9621135,0.7492088,-0.29052925,0.2035373,-0.60623586,0.49948806,-0.88019156,-0.48003715,0.4287664,0.29619825,0.05975286,-0.50094074,-0.70081306,-0.0815908,-0.24981636,-0.75535357,-0.5737015,-0.6766981,0.24216929,0.6889069,-0.24622583,0.28737283,0.5585901,0.6875982,0.3081263,0.46353337,-0.6787516,-0.39161772,0.2037696,-0.07410563,-0.24354637,0.51620805,-0.48071313,-0.09045964,-0.34992358,-0.440216,-0.28813285
updatePost,0.040854923,-0.6664639,-0.41701162,0.4777869,0.6576333,-0.00010327995,0.059719995,-0.46235478,0.31000137,0.09461997,0.7073474,0.124662936,0.5234452,-0.895418,0.43281162,-0.29379374,0.36710465,-0.4787733,0.3254263,-0.5549588,-0.3949508,-0.25276756,-0.63951576,-0.95022774,-0.17475615,-0.26320404,-0.48455957,-0.5936489,0.33673608,-0.5449108,0.94396454,-0.24946497,-0.58045304,0.61230385,0.7278918,0.30770028,0.30291754,0.86992574,-0.014430461,-0.7928897,-0.63046575,0.09466567,-0.93194085,-0.9532411,0.042990103,-0.46219525,-0.5648721,-0.6195396,0.07055461,-0.0817195,-0.11029239,-0.43610975,-0.1562084,0.8303112,0.016461901,0.36825126,0.1922363,0.05868034,0.92707,-0.85002387,-0.59719175,0.3075634,-0.6608888,-0.8340697,0.22491053,-0.13405043,-0.440423,0.78138274,0.81218886,0.45449746,0.44741508,0.053619772,-0.049910128,-0.14735055,0.2551236,-0.9724827,-0.4125189,-0.09172158,0.38999256,0.36115554,-0.81810325,0.6444648,-0.8870499,0.292788,-0.9485897,0.1620343,-0.7919183,0.027689874,-0.5046603,-0.8947488,0.6193042,0.9534124,-0.20456961,0.053330295,0.33761755,-0.22211322,-0.5539615,0.5743328,0.84120876,0.72087157,-0.25159198,-0.5194618,0.07590391,-0.1282881,-0.20600262,0.46311077,-0.42136157,0.5775595,0.6117295,0.05299273,0.19955562,0.13593969,0.275317,-0.015336454,-0.50180095,0.20919907,0.19539912,0.10979054,-0.2578489,0.23722103,0.4036653,-0.51644146,-0.36082745,0.6626936,-0.16939494,0.6441736,-0.94953763,0.6701199,0.38794777,0.4409329,0.4207378,0.60394776,-0.50973445,-0.7043794,0.23100089,-0.29281938,-0.17573033,0.32782042,-0.11413436,0.28450075,-0.23986119,0.013038516,0.90030676,0.53141874,0.5128315,0.5737567,-0.8728508,0.3355285,-0.73800725,0.25807387,-0.81231934,-0.6675939,-0.39115292,0.23979181,0.3755951,-0.9016701,0.63759804,0.12509698,-0.25924546,-0.4774542,-0.3762467,-0.49522886,0.39487875,0.65956986,0.66291213,0.5466766,-0.3899978,0.59107226,-0.12480377,0.5817887,-0.4308013,-0.16680372,-0.64451593,0.46169114,0.73292667,0.26724318,-0.059524693,0.17503028,0.5468685,-0.97204876,-0.5541857,-0.76431006,-0.11011039,0.8650949,0.60298276,-0.48543054,0.5905984,-0.39489105,-0.7720699,-0.8870238,-0.89151764,-0.8015155,-0.035120875,0.4575435,0.6275521,0.0030039474,-0.9688179,0.51049143,0.7811939,0.033596233,0.1229952,-0.13370392,0.14390787,-0.7954752,0.019301958,0.054400247,-0.7790551,-0.006507024,-0.5671607,-0.16640277,-0.673571,-0.2554505,-0.49539644,-0.10267543,-0.63029367,0.40135393,0.92731684,-0.592835,0.34683552,0.50959975,-0.75613284,0.0646456,0.6758197,0.4118649,0.520341,-0.6556596,-0.6225562,0.79886055,-0.20678115,0.019932926,-0.79500455,0.27939653,-0.46617508,0.49821272,0.47791505,0.0707499,-0.055900767,-0.8459047,0.081515506,-0.89747953,-0.07471326,0.7208566,0.45977813,-0.27123094,0.9275832,0.94025695,-0.43630835,-0.38268536,-0.97914314,-0.39360082,-0.3693334,0.25131637,0.39964,0.3442452,-0.18810324,-0.83513194,0.90692675,-0.0919288,0.80746907,-0.4503522,-0.3512814,-0.59638894,-0.6888438,-0.76448584,0.60989356,0.065788805,0.64704245,0.7218208,0.2743406,0.23281974,-0.060855653,-0.6765051,-0.7772393,0.7240716,0.7763678,0.14465883,-0.79181385,-0.012368478,0.0071312636,-0.28717887,0.8521481,0.2569801,0.0047644563,0.8380484,0.10271881,-0.60746455,0.7949744,-0.25155285,0.7257517,0.40339366,0.5482532,-0.7563222,0.3232668,-0.9020344,0.3559787,-0.07884747,-0.42210838,0.7141801,-0.5895562,0.85386086,-0.6210512,0.30061966,0.0069665685,-0.78602874,-0.67201203,0.91930944,0.27796513,-0.748901,-0.5676005,0.65426624,0.72280496,0.3818746,-0.3995263,0.965979,0.34453273,-0.37389225,-0.74723935,0.6934261,-0.54295087,-0.628031,0.40242362,0.2924852,-0.36598095,0.5674085,-0.35511446,-0.8722987,-0.12481287,0.31302744,0.67240727,0.60604316,-0.7157706,-0.5591779,0.004971206,0.7251111,-0.65486825,0.011476584,0.5414957,-0.40269062,-0.46635187,0.91535527,0.3258309,-0.34030658,-0.33901677,-0.59120226,0.76881707,-0.09363833,0.8862925,-0.9621135,0.7492088,-0.29052925,0.2035373,-0.60623586,0.49948806,-0.88019156,-0.48003715,0.4287664,0.29619825,0.05975286,-0.50094074,-0.70081306,-0.0815908,-0.24981636,-0.75535357,-0.5737015,-0.6766981,0.24216929,0.6889069,-0.24622583,0.28737283,0.5585901,0.6875982,0.3081263,0.46353337,-0.6787516,-0.39161772,0.2037696,-0.07410563,-0.24354637,0.51620805,-0.48071313,-0.09045964,-0.34992358,-0.440216,-0.28813285
deletePost,-0.8119068,-0.951229,-0.7461103,0.7846126,0.6232513,0.9078834,-0.94482756,-0.9920562,0.5151644,-0.6172074,0.85189533,-0.6699898,0.8820106,-0.99289715,0.7125626,-0.33898348,0.680948,-0.41570428,0.0060557947,0.0063006356,0.56509537,0.5263965,-0.9724662,-0.9125732,0.8580934,-0.75197303,-0.759279,-0.40055394,0.8188964,0.93992984,0.79504293,0.6739492,-0.63550144,0.7234356,0.95413387,-0.9488449,-0.8128143,0.99256027,-0.8457172,-0.93517506,-0.48560917,-0.9082067,-0.9955263,-0.9912325,-0.4208101,-0.70951194,0.4612402,-0.98394156,0.13595238,-0.9502518,0.23710912,-0.98143077,0.3024088,0.9203331,0.52509177,0.755828,0.74587697,-0.7246227,0.92696655,-0.7344743,-0.5486349,0.7004928,-0.810693,-0.8194852,-0.8550736,-0.8676582,-0.7390288,0.6209698,0.95970654,0.7524502,-0.7592473,0.49932754,0.94058967,-0.79758114,0.15711132,-0.9957658,-0.3237461,0.6674387,-0.8144914,-0.9677577,-0.989403,0.9856451,-0.97168326,0.99656016,-0.77856815,-0.5766284,-0.9972826,0.57542765,-0.97651625,-0.9929627,0.9896986,0.9936381,0.73186123,0.42708427,-0.06880731,-0.79492384,0.73288953,0.9967299,0.6842638,0.9640926,-0.7725468,-0.8883805,0.29329413,-0.69179076,-0.8513098,0.75385994,0.03279562,0.96218354,0.7332266,-0.61851954,0.32570833,0.44633663,0.6414223,-0.40959585,0.4553681,-0.3287584,0.6744902,0.98391515,-0.0062000602,-0.79817444,0.95338017,-0.8395255,0.83176225,0.9964081,-0.939175,0.95854664,-0.823036,0.0023396797,0.9669724,0.87302184,0.9972092,0.9871435,-0.22518541,0.55710804,0.43715018,0.6983955,0.98374784,-0.11396112,0.45787153,-0.11611406,-0.7645275,0.09788186,0.9956495,0.49305353,0.759608,0.82655525,-0.75539,0.7858847,-0.9149612,-0.8269717,-0.63271344,-0.91693443,-0.5008634,0.83944017,0.80537444,-0.82421577,-0.54895747,-0.29123506,-0.9964341,-0.7038593,-0.7746341,-0.9324643,0.99822235,0.8080523,-0.5951834,0.7217227,-0.7780256,0.2768333,0.5582898,-0.89114976,-0.9188862,-0.9695684,-0.90647095,0.31023338,0.9797857,-0.86484295,0.7144782,-0.8300652,0.836122,-0.97703123,-0.75985885,-0.76297253,-0.95516986,0.96510446,0.18784525,-0.7820775,0.9485724,-0.9240001,-0.99115396,-0.7870338,-0.7995061,-0.79043853,0.34128508,0.8733679,0.9380008,0.7044847,-0.98558486,0.70131254,0.96163076,0.7679499,-0.7861416,-0.4325632,-0.79671276,-0.81005555,-0.67368734,-0.29858413,-0.96443886,0.27047518,-0.96910006,-0.9063271,-0.7258395,-0.9000341,-0.7551669,-0.9930415,-0.93194497,0.7887495,0.99711293,-0.821373,-0.64763993,0.62903756,0.50410646,0.77218175,-0.54168123,0.8120268,0.57948834,-0.20445587,-0.6420813,0.59913576,0.40601707,0.8295671,-0.78268033,0.73487914,-0.55780363,0.9550767,0.66574997,-0.5002298,-0.7927862,-0.87862855,-0.92987454,-0.84833986,-0.68260604,0.6865932,0.6939345,0.6178705,0.85113364,0.8272774,-0.80468017,-0.5336602,-0.98910016,0.09225096,-0.8454026,0.80359554,0.99187636,0.9746763,-0.5582427,-0.67614734,0.8263894,-0.35089803,0.98317444,-0.8337679,0.9575418,-0.7781136,-0.763927,-0.69663966,-0.12044105,0.86304116,0.4335426,0.73604333,0.3730053,0.15235835,0.42314947,0.51869166,-0.82792467,0.8937099,0.90666467,0.84263986,-0.83397126,-0.85963494,0.2109541,-0.71587443,0.8787355,-0.48823914,0.6409993,0.74789774,0.5733888,0.93200296,0.72852784,-0.58129835,0.7985998,0.9817383,-0.7010935,0.24486728,0.9929675,-0.9918165,-0.5285357,-0.8609012,-0.92333615,0.681664,-0.6197961,0.9844321,-0.6382677,0.9767134,-0.8619139,-0.91882575,-0.9375429,0.9952593,0.6521922,0.33911923,-0.2037031,0.9299323,-0.2746516,0.8047824,0.99596196,0.994323,0.85983175,-0.038993385,-0.9498677,-0.3857791,-0.79052925,0.43745938,0.11778152,0.5659925,-0.55331546,0.9898708,-0.00676959,-0.79537976,0.2336135,0.39336655,0.6380457,0.5662875,-0.5362805,-0.8390798,0.44785917,-0.84140587,-0.9611652,-0.66691333,-0.27340126,-0.68105626,-0.7722035,0.99138594,-0.76813054,0.6923291,-0.4212732,0.15239827,-0.77811944,-0.53325987,0.97794247,-0.8266597,0.8441651,0.2830567,-0.7412924,-0.85161257,0.96672964,-0.9358167,-0.47208184,-0.50307274,0.89639163,0.6556551,-0.8403903,-0.57533604,-0.39745426,0.7432118,-0.98821807,-0.9359157,-0.8066967,-0.7802714,-0.60988677,-0.9895414,0.85850257,0.82449424,-0.022174872,-0.12806505,-0.14033446,-0.83833116,0.12756428,0.6791293,-0.23721476,-0.9094189,0.99367875,-0.8700073,-0.14366373,-0.62239873,-0.66060466,0.13879277
getArchivePosts,0.10841118,-0.0045896843,0.37705523,-0.7702558,0.11425941,-0.2502355,-0.12946041,-0.10736209,0.5787846,0.024367705,0.4327942,0.03127359,-0.12379101,-0.03864277,-0.104772955,-0.73497665,-0.37904298,-0.20786184,0.4452105,0.66853625,-0.07931184,-0.030435592,0.20314282,-0.4405301,-0.20167288,0.11992477,-0.27065206,-0.050142158,-0.08418089,0.13629621,0.3195722,0.68969375,0.62706804,0.06748567,0.36139137,0.35919997,0.040111978,0.6766398,0.45536527,-0.53360134,-0.34318858,-0.15279113,-0.85406375,-0.60903305,0.437577,0.5668605,-0.2577788,-0.48993406,-0.3968809,-0.0060483515,0.14312425,-0.14060986,-0.45300815,0.555221,0.62639964,0.15323013,-0.20653763,0.1506818,0.61035043,-0.317165,-0.14359507,0.62122303,0.033507608,-0.31080908,-0.019594997,-0.20373064,0.25347894,-0.2396121,0.2809382,0.012086873,0.29211757,-0.20143989,-0.4163891,0.19838098,0.22299099,-0.41868562,-0.588848,0.50113785,-0.22816521,-0.117433906,-0.12600976,0.44620997,-0.47458577,0.5804204,-0.45327407,-0.43978587,-0.017003726,-0.70442116,-0.652184,0.11473586,0.46211776,0.17522421,0.34094846,0.093605556,0.4272921,-0.3115646,0.49105534,0.34324384,0.48582453,0.5505658,0.15091375,-0.11719346,0.09477005,-0.018614352,-0.15784237,-0.49030462,-0.50777876,0.11180613,-0.3901405,0.23068902,0.6722465,0.055046245,0.12586784,0.7516856,0.07975751,-0.1108756,0.46228936,0.516489,-0.5837393,-0.14729565,-0.20608164,-0.0031835511,0.21040566,-0.15593717,-0.13558796,0.5665755,-0.48962402,-0.28786376,0.099416375,0.26072016,0.12175402,0.6000912,0.30567798,0.091177985,0.24453408,-0.12127043,0.4808472,-0.38523427,0.029244699,0.5165562,0.33386564,-0.92920125,0.05306767,-0.8009067,-0.3453192,-0.12681445,0.0562329,-0.26045468,-0.041937217,0.30663973,0.06623107,-0.4354902,-0.0768287,0.17321488,0.46923584,0.35278028,0.07253307,-0.48272228,-0.0022080392,0.21537817,0.06518391,-0.07304442,-0.41105616,-0.13384415,0.3295883,-0.17466937,-0.32632592,0.5266326,-0.04732582,-0.6237092,-0.13027433,-0.4943829,-0.34140995,-0.26945257,0.530187,-0.097392626,-0.33015737,-0.055151265,0.61506677,-0.17814231,-0.013260931,0.23095828,-0.43859217,0.35502324,0.12218566,-0.25737274,0.5551878,-0.107364886,-0.36044145,0.47159067,0.06747095,-0.3751827,0.2790805,-0.40992546,0.58277035,0.25518093,0.032358482,-0.02351335,0.029948048,0.20928374,-0.25929666,-0.024923168,-0.4577843,-0.4747014,-0.5342209,-0.40659475,-0.19267237,0.43876356,-0.17563608,0.5114608,-0.6055408,-0.35560203,-0.47696915,0.13327399,-0.49040785,0.2966892,0.83517694,-0.14469697,-0.13262892,-0.3166387,-0.10885861,-0.20843638,0.29453194,-0.1599262,-0.23540482,0.676257,-0.2098107,0.33081204,-0.21104756,0.30171576,0.3768623,-0.10741045,-0.4544621,0.40516824,-0.15916583,0.05663658,-0.22911495,0.12773338,-0.27513978,0.15152165,0.30662152,0.33126062,0.3835888,0.45957398,0.4862721,-0.010092596,-0.024412483,-0.11251527,-0.42178592,-0.5722942,-0.45296463,0.073909745,0.33148456,0.2472676,0.21768701,-0.40225887,0.14260164,0.64635587,-0.39418858,-0.2177223,0.08002227,-0.033291407,-0.46824503,-0.43060204,0.2654475,0.086563,-0.551007,0.04514438,0.05123678,0.22959846,-0.0711312,-0.2815349,0.05875529,0.21085021,0.72638947,0.1318713,0.17288911,0.17067255,-0.121183336,-0.318185,0.112590976,0.51889426,0.20310733,0.05280318,0.40258023,-0.32603478,0.01722385,-0.14885506,0.12799896,0.35756114,0.08659036,0.25646168,0.7153474,-0.65388304,0.5600831,-0.6123627,-0.2756499,0.2597746,-0.46851242,0.42845458,0.6215711,0.71003324,-0.11687647,-0.40848544,0.20098227,0.6675721,-0.10535021,-0.19045335,-0.44103584,0.17702857,0.5176415,0.25244683,0.10204306,-0.6692934,0.5001601,0.05340129,-0.435049,0.095547274,-0.15985283,-0.54672116,0.23495755,-0.29534757,0.1506766,0.5695652,0.049048655,-0.22726774,0.72058356,-0.040835902,0.32040602,-0.40857306,-0.42322168,-0.07193654,0.22012368,-0.4552787,0.0717183,0.72532314,-0.28968617,0.34081376,-0.4126122,0.26714176,-0.054305233,-0.4397749,-0.19966842,0.42558008,0.5863687,-0.19910502,0.7274687,0.11178709,0.30777326,-0.24975592,-0.082335904,0.15513413,0.81619614,0.14704156,0.20785989,0.14904666,0.4275009,0.0022314861,0.10139643,0.2250066,-0.2899036,0.1377552,-0.514979,-0.41461185,0.00043267012,-0.06319676,-0.21256734,-0.25339702,0.32634702,-0.6051482,-0.06893286,0.0053552315,-0.29195654,0.083299614,-0.6584916,0.17591883,0.082123086,0.14424181,0.4859932,-0.30116713,0.16521668,0.15753597,-0.04485201,0.030882604
getPostTags,-0.67183316,-0.76986176,-0.12159204,0.6381792,0.28366923,0.39077145,-0.47023067,-0.34031427,0.6542486,-0.07139115,0.27304292,-0.6341008,0.3464018,-0.51432246,0.48208013,-0.3200058,0.052481316,-0.3971716,-0.2891596,0.73676795,0.140405,0.12146035,-0.91830295,-0.41879824,0.40206978,-0.7405135,-0.5250478,-0.053376585,0.27515432,0.19697511,0.5994808,0.6913937,-0.5419953,0.6861009,0.8793631,-0.13422474,-0.306898,0.71271646,-0.46772844,-0.57537675,-0.4747271,-0.34072965,-0.96832323,-0.8186246,0.058062077,-0.36404383,0.09864582,-0.8256484,-0.40819025,-0.848749,-0.4835291,-0.784138,0.34431916,0.8811927,0.8017499,0.022010878,-0.016331485,-0.5385678,0.7483261,-0.83892703,-0.12451212,0.6587191,-0.18937764,-0.90100366,-0.6499463,-0.35753462,-0.4399471,0.5501896,0.6908973,0.5338561,0.15077747,-0.17411399,0.77709085,-0.25040117,0.6759498,-0.96821856,-0.4263425,0.5205428,-0.3226455,-0.4865804,-0.8084389,0.92606604,-0.93258274,0.8339765,-0.34145403,-0.39069575,-0.8567819,-0.06379124,-0.55757225,-0.9440268,0.81245637,0.77073854,0.52843934,0.32224512,0.6352646,-0.19474947,0.89069235,0.8929432,0.6589141,0.92237115,-0.30772784,-0.32389924,-0.23162797,0.28954437,-0.7932977,0.66953987,0.04758863,0.6139365,0.31245762,-0.052610125,0.24957505,0.20553482,0.20139118,-0.05936113,-0.14795223,0.30200157,0.81850934,0.35424078,0.3388382,-0.13808395,0.43044153,-0.6293019,0.6164112,0.54487723,-0.38519236,0.7955185,-0.6314465,0.17759946,0.7789952,0.35402614,0.4599135,0.8966007,-0.48869368,0.263303,0.02045067,-0.2686899,0.93053055,0.44075477,0.38853458,0.69336,-0.0836429,-0.69544613,0.4681167,-0.25274813,0.22205308,0.4338837,-0.64640594,0.086245015,-0.6497289,-0.35795593,-0.64507914,-0.73588544,-0.22076322,0.4714308,0.6671263,-0.40333068,0.048955817,-0.22735956,-0.46484962,-0.12303289,-0.5970044,-0.5690913,0.567378,0.47394902,-0.12857263,-0.08694466,-0.3522729,-0.13691969,-0.008965254,-0.5279654,-0.88081264,-0.9083137,-0.47310263,0.27429962,0.94771814,-0.8248999,-0.20200847,-0.80719465,0.90162075,-0.77880687,-0.14371052,-0.7122775,-0.9830712,0.6266886,-0.21463479,-0.57031876,0.52575886,-0.72545797,-0.6340701,-0.4907295,-0.8241902,-0.8729765,0.32677582,0.4782663,0.9287702,0.042761564,-0.384873,0.32250613,0.65087444,0.43573284,0.12834811,-0.10212569,-0.578197,-0.7302463,-0.28385553,-0.3588385,-0.7954187,-0.16550049,-0.83195275,-0.17842118,-0.7492962,-0.42918038,-0.60266024,-0.35919842,-0.23671715,0.4102709,0.9011096,-0.82905394,-0.005879909,0.6514015,0.12671919,0.10110776,0.04792323,0.8702474,-0.06353435,0.23185658,-0.7897954,0.70871073,-0.2734906,0.5854141,-0.30101195,0.52063924,-0.51508266,0.9110586,-0.14832962,0.30366692,-0.41579595,-0.70986766,-0.82796055,-0.5094281,-0.18804103,0.42503732,0.46516684,-0.23511307,0.98477054,0.89358354,-0.5721922,-0.0036593936,-0.80898917,0.2577144,-0.22842312,0.60850376,0.48647556,0.8309225,-0.26013288,-0.3435116,0.5639418,-0.69359165,0.8544657,-0.4530565,0.75011635,-0.70571893,-0.89606214,-0.52794147,0.28727376,0.516612,0.5056712,0.40608913,-0.13549465,-0.37642005,0.049256686,-0.020696161,-0.715062,0.26815665,0.87075084,-0.06538071,-0.7257447,-0.3366074,-0.6842524,-0.7341921,0.6458756,0.6369677,0.0123772025,0.8498172,0.46069005,0.45232403,0.14385471,-0.75527453,0.52044296,0.59800714,-0.547283,-0.08035736,0.9004867,-0.9131103,0.1127378,-0.21258384,-0.79550385,0.27024105,-0.83222014,0.82429343,-0.3296485,0.8319721,-0.4306383,-0.47231707,-0.74131805,0.867628,0.73121697,0.35104567,-0.29915267,0.6906992,-0.027871426,0.25168276,0.7056644,0.51253414,0.466227,0.68958616,-0.58888644,0.3776289,0.015763298,-0.15915522,-0.18507695,-0.057626333,0.26582834,0.59226793,0.031751096,-0.5615822,-0.12065355,-0.1419487,0.6777697,-0.38890213,-0.48534647,-0.27337617,0.82757545,-0.71126837,-0.8959801,0.022899324,-0.6005935,-0.21210624,-0.90966237,0.5418457,-0.6205665,0.6670145,-0.37210518,0.5563811,0.47957104,0.17734429,0.6927768,-0.38060284,0.36643922,-0.06482152,-0.37819338,-0.73062587,0.5358936,-0.53530127,-0.21998064,-0.45896447,0.36680645,0.5339112,-0.6626294,0.18502118,0.43336794,0.71813047,-0.8688039,-0.72353613,-0.40875435,-0.3676953,-0.5525022,-0.8193898,0.83893055,0.60886025,0.34515443,0.08198849,0.26888713,-0.48502114,0.2631987,0.66588914,-0.39881527,-0.26535654,0.78861284,-0.45432353,-0.19102806,-0.108944744,-0.79135543,0.41793954
extractPostMeta,0.710302,-0.6940669,-0.3476951,0.24956569,0.34532094,0.13050836,-0.83620924,-0.7357977,0.5984137,-0.16078472,-0.020473506,-0.87463915,-0.35124803,-0.60599947,0.11253351,0.920386,0.70784205,-0.13497242,0.4779913,0.048136182,-0.24292573,0.39230168,-0.72341806,-0.79517865,0.1519341,-0.2940285,-0.2891596,0.4107964,-0.6493355,0.2829483,-0.36565846,0.6802592,-0.4754214,-0.15595171,-0.3472441,-0.48845732,0.1288881,0.33770955,-0.5003848,0.51365685,0.6810068,-0.66862583,-0.83634233,-0.93118334,-0.49073148,-0.40778613,0.027203329,-0.9568928,0.013807626,0.58987856,-0.17699862,-0.7095364,-0.8404585,0.8171357,-0.7126547,0.014134569,0.4779585,-0.57360315,0.5753441,-0.7654861,0.70634913,-0.40167788,0.076464996,-0.6753451,-0.59725904,-0.0048072836,-0.38634822,0.15430364,0.47622374,0.0881997,0.5129355,0.409791,-0.59886473,-0.34062877,-0.25931957,-0.44182605,-0.287249,0.403712,-0.7750932,-0.66236454,-0.80637854,0.8733295,-0.5874839,0.566955,0.41030052,-0.33311903,-0.8424759,-0.6155007,-0.9686019,-0.63768744,0.8768892,0.22912464,0.74502987,0.592429,0.642516,-0.49974993,0.58052874,0.750638,0.46637177,0.61132324,0.6631598,-0.88203436,0.048368946,0.52596414,-0.21731034,0.42807898,-0.46338665,-0.5338386,-0.6979093,0.21607092,0.5145727,0.45933533,-0.52106434,0.30658346,-0.91216755,0.272758,-0.30911773,0.38282442,-0.63907784,-0.66704494,0.58100146,-0.4791163,0.8081425,0.7805636,0.58229953,0.6352888,-0.23315975,0.33303088,0.6876667,0.7771374,-0.016155723,0.8268877,0.4061715,0.62667066,-0.4016303,0.14958142,0.88244504,-0.50883365,-0.28036726,-0.71140635,-0.56245816,-0.87360674,0.4487792,0.29207644,0.7255847,0.29477417,-0.5925478,-0.6294887,-0.82075036,-0.88763404,-0.41310483,-0.67800206,0.19120544,0.23369887,0.77937,0.5499513,-0.1815629,-0.80145997,-0.20654178,0.56896526,-0.39570343,-0.29881337,0.7512283,-0.70124465,0.25090867,0.23496945,-0.63904476,-0.2842539,0.45074308,-0.14435756,-0.635398,-0.7817049,-0.6387163,0.42255783,0.80004555,0.17502189,0.46423593,-0.45242643,0.8393521,-0.56272495,0.6867819,-0.4001876,-0.69672185,0.87610495,0.4894224,-0.07860596,-0.7870972,0.24727038,0.3019347,0.4682879,-0.5677529,-0.6915371,0.39202985,0.46846706,0.90884244,-0.52623665,0.40408906,-0.17674308,-0.023146234,0.879918,0.29614973,-0.80859494,-0.50784343,-0.81333375,-0.56769514,-0.3300546,-0.6849963,0.8447187,-0.74938864,0.24573281,-0.7542721,-0.76095736,-0.54722357,-0.5781637,-0.74648774,0.41138756,0.46454218,-0.6112282,0.49640176,-0.014396094,-0.42218846,0.79099536,-0.3653193,0.0046600364,-0.40470988,0.5738466,-0.8946083,0.59360766,-0.6444478,0.54910326,0.06050971,0.768082,0.59505284,0.6863683,0.41902477,0.040212214,-0.7646735,0.46387407,-0.6041986,0.040167402,-0.29342803,0.36884478,0.057313323,0.1443634,-0.5968859,0.9144962,-0.6883533,0.26561588,-0.7247643,0.24654461,0.07973439,0.5841875,0.41874108,0.6378909,-0.4344539,0.6448072,-0.34272936,0.15206373,0.2580268,-0.730737,0.4324629,-0.091992736,0.87718034,-0.5039854,0.6531951,0.77588385,0.24089894,0.52820516,0.91888964,-0.33857116,0.8033169,-0.7009578,-0.65469605,0.7102046,0.8487197,0.57839733,-0.23162292,-0.78732204,0.49073118,-0.84955186,-0.473288,0.22183952,-0.48921108,-0.7870006,0.47748646,0.7452049,-0.5752109,0.4753858,-0.22227411,0.21788895,-0.9108162,-0.5167847,0.9285468,-0.63024426,-0.90081435,0.42889798,-0.49236032,0.7654312,-0.8844923,0.90223813,0.25973818,0.41969877,-0.83304715,0.008150857,-0.06515633,0.91106695,0.09719804,-0.52201086,0.39685085,-0.63068277,-0.28162795,0.7501161,0.9594592,-0.0943196,0.6473347,0.38348818,-0.7409177,0.649415,-0.3098905,-0.81998897,-0.33442357,-0.43015033,-0.38613823,0.82634544,0.6352163,-0.55162686,-0.5076605,0.48937473,-0.43290794,-0.7706913,-0.24652907,-0.8733303,-0.37675154,-0.45878726,0.6826424,0.33048242,-0.63604265,-0.24974212,-0.037723746,-0.33864293,0.22037372,0.44509596,-0.30787733,0.19135985,0.39791366,0.4408477,-0.116609015,-0.67434907,0.80078363,-0.42998183,-0.6102557,0.10959549,0.6224404,0.22606897,0.78929096,-0.4783981,0.56585974,0.2256462,-0.77229357,-0.41594785,-0.5665518,0.6806869,-0.25289285,-0.70350087,-0.463958,-0.053894296,-0.57880145,-0.8553264,-0.5552937,-0.637135,-0.7167135,-0.4308817,-0.56944203,-0.40976343,-0.61979234,-0.45035058,0.5785425,0.878278,0.8248079,-0.66657764,0.51375544,-0.47610587,0.75076663,0.5740332
getAllPublishedPostsByPage,-0.5615915,-0.73394066,-0.5483892,0.42624012,0.10887112,-0.7494788,0.34998974,-0.742899,0.52304554,0.5234316,0.728698,0.4465246,0.67095137,-0.70091736,-0.4218621,-0.88031363,-0.20952214,-0.7987756,0.28818315,-0.016451366,-0.3579136,0.11414245,0.069021866,-0.68493575,-0.10949993,-0.36805516,-0.44379637,-0.47963053,0.77842104,-0.14112805,0.85178137,0.5389259,-0.45480642,0.6279229,0.7007153,-0.089872554,-0.018490441,0.8122578,-0.7592955,-0.7614005,-0.63279545,-0.41914415,-0.9043489,-0.41801316,0.002564568,-0.14890394,-0.3344678,-0.6619265,-0.60149914,-0.12333679,-0.5490786,-0.5472095,-0.2009521,0.37041706,0.695664,0.4588256,0.22156182,0.59375465,0.480559,-0.4840426,0.011136778,0.6713319,-0.563056,-0.515831,-0.62232935,-0.70431435,-0.6215681,0.40291694,0.7891128,0.18126765,0.6431891,-0.19233438,0.24532084,-0.0039823353,0.1517287,-0.881284,-0.50456315,0.5817385,0.022947747,0.12363966,-0.5937194,0.6414478,-0.22414346,0.7681105,-0.018521577,-0.22780874,0.15114002,-0.88897455,-0.68033296,-0.67838645,0.34258392,0.7898932,0.42435914,0.024068994,0.36489838,0.4346787,-0.2501679,0.73591614,0.77808475,0.7953788,-0.69234383,-0.6235373,0.72049266,-0.17192683,-0.6000972,0.58221805,-0.5472698,0.7336226,0.53119683,0.50727475,0.4283765,0.20852426,0.35578638,0.3163587,0.1770226,-0.5574907,0.7480562,-0.35679245,-0.54332036,0.44976833,-0.48933858,0.101874754,0.6308172,0.68790644,0.450463,0.8397121,-0.6870715,0.44689792,0.7160363,0.8806237,0.7097437,0.59141773,-0.02130112,-0.28548694,0.6346441,0.08415106,-0.6436759,0.80496436,-0.21383905,0.2991438,0.22551636,-0.45599258,0.4085288,0.1475772,0.6218275,0.82854813,-0.6704966,-0.3903942,-0.2285804,0.30517098,-0.7263118,-0.6205243,-0.40965396,0.60717577,0.4559317,-0.6544225,-0.28486776,0.6200533,-0.41075724,-0.5059489,0.61514777,-0.838706,0.6264672,0.6734978,0.38078862,-0.16512501,-0.2815668,0.5413685,-0.08225759,0.72735214,-0.660277,-0.78839743,-0.8779087,0.41705018,0.87948865,0.082674325,0.67074007,0.50816137,0.7784672,-0.7169367,-0.8478801,-0.6751964,-0.1848188,0.36270475,0.3884052,-0.88289464,0.5381193,-0.79178566,-0.79284286,-0.077198595,-0.57038313,-0.84255385,0.7793206,0.4227851,0.791549,0.6463041,-0.61627316,0.73118424,0.6423036,0.3522102,-0.50375605,-0.2887119,0.532765,-0.2486485,-0.59978306,0.34666148,-0.2991413,-0.41339543,-0.08296004,0.22713652,-0.22351906,-0.67994654,-0.13975996,-0.066935666,-0.24718952,0.49860036,0.9204423,0.2598111,0.435237,0.54185313,-0.6511831,-0.09771164,-0.47579396,0.73007965,-0.39483312,0.21679682,-0.80083543,0.78586394,-0.58526164,0.27246737,-0.39274538,-0.5668553,-0.728776,0.6448245,0.459499,0.697214,-0.24226357,-0.42291644,-0.4042921,-0.54899406,-0.7143698,-0.08297768,0.4553659,-0.58895063,0.7147856,0.6965021,-0.74682194,-0.36449015,-0.8976221,-0.23249432,-0.7713588,0.8260124,-0.39052016,0.22878672,-0.2994548,-0.8718753,0.6215166,0.3819757,0.63246083,-0.19421291,-0.77156514,-0.71810794,-0.7613728,-0.6147332,-0.21071744,0.38458672,0.4194281,0.6585345,-0.30763972,-0.5927125,0.024682507,-0.2398397,-0.18392283,0.7140173,0.91149485,-0.3780586,-0.5271639,0.02558919,0.0016924031,-0.22904438,0.6709755,0.807096,0.34793922,0.7940182,0.36134833,-0.47026017,0.28843075,-0.6900086,0.2814071,0.79545605,0.7781278,-0.58666205,0.7740272,-0.9201282,0.42487657,0.32649344,-0.28395617,0.6813924,-0.7399721,-0.05774369,-0.21769863,0.829486,0.7409025,-0.39852172,-0.5444655,0.882864,0.69135517,0.47294554,-0.6179402,0.77277386,0.26924783,-0.05587839,-0.089099914,0.279582,-0.13586587,-0.16159952,-0.7310544,0.30501813,-0.32503378,0.59381604,0.31297383,0.4857782,-0.014365446,0.7784448,-0.7274772,-0.7584598,-0.12039815,-0.29589957,0.61909246,0.26821256,-0.6365432,-0.40700215,0.4236841,0.3024794,-0.7627262,0.4034752,0.55378866,-0.60414016,-0.9137728,0.6646135,0.55243766,0.25200453,-0.18816948,-0.0494823,0.6880034,-0.22092214,0.61445904,-0.7590505,0.2935331,0.032704405,-0.15751842,-0.5591643,0.746336,-0.56601596,0.2130624,-0.24990727,-0.30208808,0.3212009,-0.7508168,-0.37197888,0.6046133,0.6556212,-0.6432159,-0.054215446,-0.6652776,-0.6934813,0.3723576,-0.58590686,0.05165018,0.46887165,0.5932282,0.6127558,0.43609667,0.33676314,-0.88714004,0.3661973,0.2863637,-0.29464006,0.68653584,-0.27832326,-0.46136704,0.12414182,-0.46611142,0.08508846
createAboutPage,0.52759516,-0.2578991,0.0619089,-0.48961908,0.11036425,-0.109386496,-0.85890007,-0.5378027,0.8499472,-0.68765634,-0.6455823,-0.79288936,-0.35262424,-0.19038883,-0.31025207,0.8051134,0.414046,-0.7183758,0.7931692,0.31960064,-0.008794479,-0.3796944,-0.30402273,-0.89540076,0.6311518,-0.16018161,-0.50728416,0.6608435,-0.3089695,0.80428314,-0.18351871,0.4596877,0.28768536,-0.6096561,0.021108823,-0.73930943,-0.35787433,-0.4553541,0.012546432,0.44891548,0.826272,-0.74286515,-0.8773458,-0.954413,0.07591918,-0.15686163,0.73631465,-0.96709466,0.23759197,0.47161883,0.2326627,-0.59564894,-0.13881946,0.23294927,-0.8325495,0.3564557,-0.023290977,-0.31200272,0.8167616,-0.8849342,0.7100907,-0.50343823,-0.46764103,-0.84561694,-0.62223727,0.21121356,-0.23498756,-0.46146983,0.5355792,0.19640121,0.7450538,-0.036609814,0.099512756,-0.023383897,-0.5006565,-0.6229027,-0.66780835,0.09675428,-0.06263712,-0.38346636,-0.6381752,0.87693673,-0.75094014,0.37965786,-0.087424226,-0.75367737,-0.86705935,-0.36159503,-0.8085163,-0.86953974,0.47289816,0.18424958,0.75428593,0.7357614,-0.16926442,-0.25624108,0.58937556,0.8764143,-0.044365957,0.55138797,0.7669888,-0.84399307,-0.5280366,0.6537597,-0.57351714,0.4464919,-0.058497787,-0.35562065,-0.4084772,-0.3225719,0.50406504,0.32215536,-0.62584996,0.0918054,-0.8477235,0.3293887,0.014968291,0.71647346,-0.72747433,-0.70353,0.3730346,-0.40136275,0.83072007,0.78894746,0.70294404,0.52557325,-0.27455577,0.7077636,0.42514807,0.69974387,-0.0123652965,0.8627455,-0.4902848,0.5824935,-0.2820202,-0.63063955,0.85469186,-0.8272764,-0.31730375,-0.5562038,-0.1323294,-0.96797395,0.6999979,-0.05309266,0.729002,0.4439605,-0.5083392,-0.4051764,-0.96998405,-0.78177106,0.13443944,-0.7718874,-0.00060403347,-0.08965572,0.8706043,0.51445824,-0.18268141,-0.9125811,0.0726725,0.10319677,-0.20777489,-0.825001,0.83808196,-0.7810613,0.072816774,0.35814276,-0.1973632,-0.25159287,-0.5093919,0.11206282,-0.31695694,-0.7609432,-0.85586953,-0.059460633,0.8894091,0.1958636,0.42095852,0.013133466,0.5793652,-0.86923087,0.89805627,-0.19960438,-0.7694445,0.67385423,0.52867603,0.13988864,-0.8276141,-0.16386393,-0.39724922,-0.28357798,-0.53975934,-0.44393647,-0.12089555,0.13314764,0.9340975,-0.65807974,0.23278442,-0.47872567,0.35984015,0.83445495,-0.16572091,-0.89205754,-0.4342902,-0.92882866,0.095746055,-0.40706372,-0.8868103,0.91436493,-0.952437,-0.038906988,-0.69674283,-0.85071087,-0.4528053,-0.40544555,-0.6170549,0.7193252,0.22768317,-0.22725832,0.34774518,0.13222915,-0.17265695,0.8743882,0.058720775,-0.26208162,-0.024631314,0.37155402,-0.8992149,0.7216091,-0.5856047,0.017934687,-0.08053777,0.69271624,-0.115469664,0.9054866,-0.27937144,-0.35916886,-0.8439755,-0.17572811,-0.8078139,0.35329014,-0.3344318,0.66700685,0.19015646,0.07865027,-0.40274513,0.6739181,-0.81402767,-0.1908965,-0.90599597,-0.31383198,0.7344898,0.08841723,-0.057161413,0.82819843,-0.46828455,-0.029618643,0.004803747,-0.12225492,0.014296494,-0.76407224,0.7543193,0.43561083,0.14546725,-0.3627341,0.9743191,0.75001127,-0.37119827,0.7891289,0.6940328,-0.15990944,0.42119926,-0.6133152,-0.600474,0.7965833,0.84793895,-0.13674611,-0.28733587,-0.98025167,0.04125067,-0.4052164,-0.09042771,0.5660564,-0.15779693,-0.7516676,0.81786025,-0.2816739,-0.7897351,0.73372424,-0.72982216,0.11883089,-0.34229505,-0.5861448,0.9147969,-0.8973036,-0.58699816,0.006021306,-0.64776134,0.47371387,-0.88468283,0.9960979,-0.14835568,0.37426,-0.40823844,0.06827997,0.77638006,0.96434367,-0.3525503,-0.58188194,0.69565606,-0.55805194,-0.36380333,0.40707862,0.75238824,0.413348,0.407772,0.65035105,-0.7194964,0.5610579,-0.20894963,-0.825358,0.5135849,-0.35806572,0.11587156,0.7210996,0.7339437,-0.44945306,-0.72927,0.58145845,-0.6360872,-0.32472998,-0.56822455,-0.40769225,-0.034833267,-0.59685737,-0.06866467,0.9404328,-0.08433608,0.053714417,0.106966905,-0.05325961,0.02496389,-0.097240746,0.28739834,-0.5841825,0.6682591,0.18616915,0.3394545,-0.8943647,0.45001072,-0.48743808,-0.46718502,0.16137365,0.8662595,0.0900486,0.10644844,-0.14192414,0.47026062,0.23191628,-0.87177277,-0.6197224,-0.854355,0.85160685,0.07137808,-0.5939256,0.022585675,-0.7135649,-0.5121864,-0.82323897,-0.23774403,-0.82393146,-0.52546287,-0.73552185,-0.35788804,-0.6878537,-0.34383193,-0.43521667,0.7329798,0.93515,0.8127191,-0.5830883,0.66295296,-0.19570333,0.58853436,0.69297814
parseTagNames,-0.8170399,0.16918345,-0.17545094,0.44883275,0.019932061,-0.28994897,0.2550741,-0.41248083,0.65009624,-0.58522236,0.6781989,-0.58826387,-0.96459734,-0.50170785,0.39277488,-0.2726078,-0.5690155,-0.42338952,-0.22746839,0.31929874,-0.88354385,-0.6945827,0.30578032,-0.47212112,-0.24703261,0.32092303,-0.08518718,0.77500457,-0.39326322,0.0021471381,-0.4931824,-0.4488724,0.17903215,-0.49473947,0.67138374,0.6167697,0.8087162,-0.73648554,-0.55656016,0.27965343,-0.58665884,-0.10534608,0.49657795,-0.40795043,-0.6387663,0.043584533,0.095964,0.7249792,-0.14170846,-0.5560766,-0.65492576,-0.74559563,-0.670143,0.68123746,0.39365894,-0.68101406,0.5477551,-0.47406164,-0.42120844,-0.72440386,-0.11061624,0.21249962,0.9907526,-0.5770553,-0.62775344,0.024961501,-0.3360739,0.73245084,-0.53477836,0.8034236,-0.500458,-0.40602666,-0.41289455,-0.547996,0.6342041,-0.18416584,0.26413277,-0.11621926,-0.6869948,0.039661534,-0.50377977,0.04015053,-0.7159688,0.5244396,0.42281824,-0.059187338,-0.3372883,-0.7405431,-0.5443101,-0.31815398,-0.022482824,-0.12585814,-0.57109755,0.698931,-0.7584089,-0.14265904,-0.1678473,0.015377827,0.6321057,0.8461207,-0.7806553,0.76971203,-0.63109803,0.8559705,0.73696613,0.74444664,-0.37079167,0.7050355,0.19810374,0.16218653,-0.27529436,-0.87160075,-0.22334233,0.34588557,0.041152313,0.31238222,0.8837017,-0.6441748,-0.4804957,-0.33228907,0.578732,0.34659955,-0.0251908,0.41438654,-0.04681094,-0.4735412,-0.21130037,-0.81177974,0.37609506,-0.58075887,-0.7179642,0.066581964,0.6491188,-0.6296006,0.5913058,-0.98446727,0.51703304,0.032629564,-0.1411132,0.7607537,-0.5788677,-0.83446664,-0.50429255,0.2874365,0.7098813,0.7769417,0.43606138,-0.30685946,0.6154837,0.7389362,-0.64986897,-0.68071,-0.57182664,0.47191978,-0.6293371,-0.5193244,0.95662653,-0.20766363,-0.05864404,0.5706366,0.5279503,-0.54915816,-0.7178637,-0.35979506,0.14515032,0.5216359,0.66686493,0.215649,0.31724906,0.6732341,-0.97200876,0.70979613,0.56466794,-0.76740766,0.6808605,-0.108088374,0.6146449,0.104113944,-0.18061851,-0.064044416,0.9603094,-0.20260474,0.43694574,-0.17257741,0.21753782,-0.73195744,0.11191011,-0.7744232,0.73361564,-0.84903026,-0.5409969,-0.051240027,-0.5257226,0.48172444,0.873328,0.32598788,-0.54414845,-0.96739805,-0.07580376,0.84084,0.18320191,0.58897036,-0.9171791,-0.02466275,-0.6016561,-0.71726614,-0.52302134,-0.50419706,-0.11881256,-0.0026360452,-0.569256,0.45167485,-0.10409994,0.1551443,-0.37336275,0.44507852,-0.7803458,0.0035963953,-0.15831652,0.861491,-0.49284756,0.607661,-0.45467743,0.3434043,0.49946696,0.75924826,0.5271839,0.8951765,-0.5195067,-0.55507356,-0.45793462,0.6730412,-0.5120411,0.04254341,-0.11820209,0.11135804,-0.85065556,-0.50910604,-0.6053629,-0.7930984,-0.50365627,0.13681714,0.9265983,-0.3189442,0.5534296,0.7567249,-0.7838101,0.69312656,0.14223783,-0.68890935,-0.1988831,0.40030223,-0.7091297,-0.24035656,-0.6562109,0.07347998,-0.27761018,-0.9320942,-0.5141095,0.64209324,0.366897,-0.29414344,-0.97823256,0.01825951,0.6818167,0.40948367,0.7787902,0.64883345,-0.96545833,-0.92814445,-0.78355795,-0.18623187,-0.53867584,-0.022647262,-0.35678065,-0.14592808,-0.92769694,0.5540794,-0.6887512,-0.61659527,0.48755068,0.61181545,-0.29546422,0.6303671,0.10629167,0.3641295,0.21981004,-0.6961238,-0.16895752,0.5380366,-0.14924997,-0.30870837,-0.41229385,0.68984056,-0.7036123,0.6299548,-0.30072212,0.714588,-0.6733123,0.20512012,-0.6464139,-0.47823885,0.63070977,0.67395365,-0.37991816,-0.10739192,0.6045642,-0.66444826,0.046200678,0.7124933,0.84719384,-0.24675655,0.21297793,-0.7774628,-0.92965126,0.95401204,0.4479136,-0.5074531,0.9459486,-0.45435447,0.55636555,0.47353283,0.25993106,0.7994813,0.25804898,-0.83184195,0.1727874,0.30234504,0.30128583,0.019671395,0.04419113,-0.08864789,-0.54340667,-0.5239005,-0.18605162,-0.39939556,-0.30216646,0.7688867,-0.92237544,-0.055681884,-0.6773125,-0.67766935,-0.704582,-0.36268562,0.75895673,0.72992927,0.8356949,0.24625537,0.0034952238,-0.1460967,0.7426123,-0.70368487,0.51173276,-0.61223924,-0.4159457,-0.1778918,0.5500875,-0.002810875,-0.86333555,-0.48727724,-0.35288233,0.5470959,0.31458402,-0.0003348291,-0.5768682,0.960426,-0.9113201,-0.5585638,-0.24781823,0.74331236,0.7473118,-0.69324034,-0.4277053,0.32642472,0.09009402,0.17870437,-0.28336376,0.8356098,0.057734087,-0.43234587,0.24561031,-0.07258211,0.2671497,0.8665867
getTagNames,0.08013201,-0.2010915,0.61918354,0.14926971,-0.42724735,-0.11551492,0.22473828,0.4410657,0.018144809,-0.11995669,0.1110494,-0.5002834,-0.2558133,0.07449607,0.52360153,-0.014724869,-0.053742874,-0.6727733,-0.6609515,0.066116,-0.49044803,-0.4953419,-0.08198742,0.569397,-0.04180817,-0.03590463,-0.36438838,-0.16821966,-0.07672113,-0.14667976,0.26850256,0.53775597,-0.23783498,-0.31359872,-0.7037634,0.73525465,0.5175102,-0.1924241,-0.010797139,-0.12708686,-0.10692625,-0.29981962,-0.2891881,-0.56487244,-0.07973474,0.5483803,0.119133584,0.67436683,-0.49555314,-0.47910047,-0.28030202,-0.15841118,-0.46320176,-0.3581848,0.48838937,-0.64306253,0.29658946,0.06363529,0.1057132,0.083026975,0.36239386,0.5147041,0.16447343,0.337008,-0.06336495,-0.058961973,0.28651276,0.3181666,0.47066295,-0.022574708,-0.5312705,-0.58008736,0.6851094,0.6525374,0.042519912,-0.7767916,0.3339201,-0.018453024,-0.47619304,-0.2441764,-0.33920553,0.06202382,0.03199168,0.40747756,-0.44148517,-0.38225925,0.34088108,-0.681048,0.2589704,-0.6448137,-0.20592621,-0.14461933,-0.31541967,0.48931897,0.055003118,0.48452225,0.6740502,0.6300697,-0.6953764,0.3123083,-0.42134184,0.23026308,0.14398514,-0.0914767,0.4188423,-0.09848483,0.3413403,0.14310195,-0.71464205,0.7409557,0.10256625,-0.26184523,0.10671321,-0.0857283,0.43287417,0.48499465,0.25743142,0.13571694,-0.661709,-0.3468952,-0.36291066,-0.15471722,-0.9095365,0.016554471,0.1544204,-0.25805628,-0.38254312,-0.35260323,0.5752407,-0.3905769,0.663986,0.12086293,0.4277928,-0.657712,0.31633112,-0.4917218,-0.09195915,0.091924116,0.73155344,-0.32085735,0.3213004,-0.6259665,0.098683715,-0.38966775,-0.2654566,0.29491568,0.5045267,0.25464877,0.2765846,-0.06758351,0.34217244,-0.2376433,0.6015669,-0.1460308,0.0066512823,0.41758734,0.61050594,0.28545526,0.20228228,0.16900203,0.15116456,-0.15943712,0.4842198,-0.55988765,-0.37235072,-0.3799078,-0.19426116,-0.064294115,-0.5580384,0.6706168,-0.93856615,-0.16966662,0.4081845,-0.01815786,0.6475623,-0.50126725,-0.010653436,0.2752934,0.26676247,0.0024215057,0.7989643,0.123933874,-0.8316624,-0.094389014,0.43681824,-0.14288273,0.12880394,-0.23696816,0.65490997,-0.27030674,-0.87013775,-0.6570086,-0.6286,-0.3023983,0.23122549,0.075787984,-0.2518936,-0.701212,-0.5374236,0.42490733,0.51074666,-0.37935525,-0.56922007,-0.71862084,0.6425867,-0.7334899,0.25964972,-0.3202788,0.6733364,0.5714827,-0.59671426,-0.40583313,0.54976255,0.33560944,-0.29604316,0.3287812,-0.19870026,-0.021037973,0.41274783,0.27737626,0.076997034,-0.69032544,0.5514881,0.20872091,-0.3811419,0.7019074,0.14200103,0.17923519,-0.08589792,0.2174588,0.17567384,-0.2677432,0.5570964,0.6048311,-0.5888212,0.5548594,-0.04015549,-0.22063808,0.19176272,0.18263888,0.13248636,0.36974263,0.49379048,0.6597402,0.54898655,-0.21275577,-0.46483472,-0.3860939,0.72021735,0.71194553,0.03661015,0.15293734,0.09744416,0.49639404,0.21975623,-0.5892596,-0.46766764,-0.18181981,-0.01700404,-0.42081854,0.03364382,-0.87425274,-0.56361985,0.57300913,-0.6041715,-0.4890386,0.20262703,0.14724159,-0.057846144,0.110356644,-0.5737408,-0.71015775,-0.26695335,-0.43412784,-0.48570964,-0.2662772,-0.21475078,-0.10669828,-0.3595322,-0.38241553,-0.12125471,0.68131095,0.6058515,0.37623549,-0.3758109,-0.16326049,0.6711068,-0.52251303,-0.5399567,0.010646622,-0.32796848,0.2602553,0.012658458,0.30967456,0.64326686,-0.33819494,-0.13717502,0.3509155,-0.8125335,-0.08817257,-0.08036712,-0.18171124,-0.28521824,0.36516106,-0.8102614,-0.44861478,0.6471606,0.4411819,-0.2770043,0.50548816,0.025369786,-0.37002662,0.39877504,0.30713654,-0.3344814,0.70853937,-0.6477774,-0.10535011,-0.06337786,-0.22239268,-0.6691475,0.3411309,-0.29966003,0.34112093,-0.42275023,-0.23484781,-0.6472051,-0.09627871,-0.14827709,-0.45422882,0.42767248,-0.16029938,-0.2197868,0.3045382,-0.1836955,-0.005142562,0.03402724,0.5618535,-0.8492986,-0.482736,-0.66076285,0.1898657,-0.5550302,0.14963718,0.011331707,0.100600645,0.12083833,0.45647943,-0.24400242,0.28386813,0.04998432,-0.69216764,-0.4706435,-0.49947217,-0.88078713,-0.4723226,-0.022629246,0.027704313,0.6743124,0.16508983,0.39114347,0.4269815,0.13662983,0.30645633,-0.48550898,0.47221833,0.58166724,-0.2849574,0.40327188,0.66012245,-0.48205227,-0.21590814,0.55472213,-0.1634208,-0.66193235,-0.16582194,0.1999115,-0.21921821,0.22937143,-0.46493837,-0.06805343,-0.17850706,-0.29946944,0.35544464
findPostsByTag,-0.87117285,-0.8659867,-0.773393,0.6882434,0.8786724,-0.7938239,0.14201006,-0.86035335,0.85124135,0.86072785,0.84592617,0.7889807,0.8261074,-0.8208432,-0.16620058,-0.89714426,0.13829482,-0.91593325,0.20312905,-0.40666288,-0.58466935,0.88691545,-0.19125193,-0.81506217,-0.82739216,-0.26301074,-0.70595586,-0.45100012,0.7603606,-0.5987343,0.8596855,0.50166243,-0.85548216,0.83157176,0.84770733,-0.27647394,0.02553305,0.8663261,-0.86981595,-0.90012985,-0.75516504,-0.5071934,-0.9616401,-0.5031043,-0.5230061,-0.69936407,-0.15626934,-0.64923614,-0.87004167,-0.49274486,-0.7824527,-0.9101111,0.2565427,0.17311679,0.81448305,0.5435679,0.6974981,0.6481656,0.4065928,-0.6586409,0.08552433,0.6453827,-0.6795376,-0.3098894,-0.7539719,-0.786335,-0.80666137,0.7286694,0.85643446,0.60096925,0.89268684,-0.022768691,0.25810358,-0.22411248,-0.16622633,-0.88448,-0.78440726,0.7139533,0.21626888,0.11230765,-0.907184,0.8647386,-0.3257025,0.88519293,-0.1609955,0.016773552,0.74975586,-0.9716624,-0.6413124,-0.84427077,0.4966658,0.8669247,0.57400316,-0.17949718,0.38382638,0.35487372,-0.5076276,0.8014301,0.90729785,0.909859,-0.77344024,-0.8245035,0.746339,-0.2459782,-0.7081474,0.61522377,-0.45873109,0.81239367,0.8566898,0.7161132,0.41843295,0.31342536,0.3071481,0.051506817,0.79281914,-0.8133473,0.76376945,-0.66752887,-0.41386887,0.6525304,-0.95913196,-0.014487669,0.6889992,0.89151984,0.33105934,0.9039973,-0.7625956,0.60025275,0.8133182,0.9285754,0.82816535,0.5757724,-0.12484133,0.064254,0.82048166,0.3937765,-0.84718406,0.8513137,-0.891388,0.56843424,0.34317622,-0.007659763,0.7781756,0.7571246,0.76133794,0.92451537,-0.9021524,-0.12927607,-0.57972205,0.29336628,-0.90075386,-0.70321923,-0.5445197,0.81765693,0.81799066,-0.7865558,-0.26658735,0.8863074,-0.74403155,-0.7737338,0.9191612,-0.9273139,0.5099368,0.76743144,0.41678438,-0.09449202,-0.8336016,0.74880075,0.15076129,0.81571376,-0.84588933,-0.9090673,-0.9252057,0.7015368,0.97240734,0.04393007,0.89735407,0.4856289,0.94530576,-0.97441274,-0.8609679,-0.8766693,-0.2869421,0.34504193,0.64772457,-0.8944831,0.37868682,-0.9278506,-0.84556055,-0.6809372,-0.8299665,-0.89807796,0.78831285,0.5337322,0.9435697,0.8521142,-0.61192906,0.8780473,0.87781394,0.28456944,-0.6161704,-0.47326672,0.6741869,-0.39660472,-0.7687826,0.54359484,0.18905841,-0.66771364,-0.17442007,0.30123097,-0.27632707,-0.904405,0.040038407,-0.07361138,-0.19832745,0.59021604,0.8991677,-0.0038315952,0.36837548,0.8292302,-0.81728715,0.25658324,-0.626304,0.88623357,-0.56687397,0.27765664,-0.76628184,0.9207093,-0.8851993,0.6816112,-0.50080705,-0.7974413,-0.9805536,0.5824484,0.85549605,0.83662105,-0.07855557,-0.851244,-0.26269495,-0.83369803,-0.7978545,-0.3689862,0.62557906,-0.61877745,0.8916224,0.9290885,-0.9110816,-0.3320915,-0.9593402,-0.32496157,-0.941981,0.9469749,-0.42961517,-0.08819483,-0.17488001,-0.888486,0.6456826,0.28412873,0.79434943,-0.32669327,-0.9081821,-0.8994619,-0.9191261,-0.8225425,-0.39931884,0.38321868,0.75916815,0.94516677,-0.5877561,-0.90247875,-0.035090193,-0.49066943,-0.46003875,0.6166119,0.87488556,-0.24007143,-0.8845677,-0.4932465,-0.086998984,-0.27055705,0.75305486,0.9081624,0.6271157,0.9646716,0.32640058,-0.659871,0.7687708,-0.9352214,0.6480364,0.8362093,0.8485421,-0.71688354,0.9227224,-0.9874403,0.53117085,0.26428777,0.08063893,0.8919095,-0.8411629,-0.051155463,-0.08835915,0.9119849,0.9041511,-0.71177626,-0.7432413,0.95518464,0.93357503,0.58038807,-0.87557495,0.9478824,-0.053921077,-0.085064486,-0.8405,0.72897816,0.22418605,-0.44492972,-0.93448997,0.2986896,-0.41661662,0.844423,-0.08678405,0.7418277,-0.47514194,0.8719963,-0.86851156,-0.8458285,-0.6116969,-0.2908278,0.8621697,0.79812783,-0.8182975,-0.6927769,0.7860346,0.23945914,-0.86834735,0.9136307,0.6637163,-0.70994043,-0.9201857,0.8431078,0.73819405,0.4754488,0.2103051,0.37819248,0.8793871,0.14529787,0.33843046,-0.82177454,0.80710816,0.076072365,0.19048719,-0.82482,0.9218471,-0.8072325,0.28809267,-0.43997213,-0.2154514,0.7785812,-0.799736,-0.48593947,0.8603486,0.85100245,-0.81499374,-0.13845572,-0.8281797,-0.89392924,0.28277022,-0.7820935,0.24071506,0.66404295,0.8463031,0.7176443,0.49759066,0.1719449,-0.9161934,0.7501664,0.30994642,-0.8156402,0.79858047,-0.4558298,-0.64073485,0.08571532,-0.7655258,-0.09266652
countPostsByTags,-0.9124135,-0.11598495,-0.47038335,-0.041836664,-0.021974262,-0.6690942,0.12939118,-0.52091384,0.52862275,-0.21964675,0.36810064,0.43446505,0.82915497,-0.43675366,0.07086818,-0.98419154,-0.7264621,-0.3505085,-0.52698654,0.0083670765,0.2756499,-0.563355,-0.47666946,-0.6352204,0.2088364,-0.6306313,-0.16621047,-0.55767447,0.98419416,0.33756524,0.69427586,-0.43101338,0.48193282,0.24628487,0.8631345,0.48315158,-0.34102094,0.58945715,-0.43100178,-0.8238641,-0.25083062,0.11864261,-0.8883616,0.49893633,0.34087127,0.12965742,-0.02449955,-0.6568415,-0.53212726,-0.717314,-0.19704954,-0.6090952,0.23677672,0.23009059,0.35945767,0.48903626,-0.14027113,-0.04084657,0.6478354,-0.29981694,-0.042255476,0.3177612,-0.2668867,-0.34104723,0.4291212,-0.9463552,-0.72786415,0.003921233,0.7356074,0.23203236,0.17484121,0.2617842,0.60032785,-0.73195916,-0.2012666,-0.8047013,-0.14034638,0.5104805,0.6259719,0.60375094,-0.3250969,0.63848764,-0.21813431,0.52677566,-0.6012758,0.1825707,0.13587192,-0.27974644,-0.28821373,-0.8104617,0.33577347,0.761689,0.38262385,-0.15762776,-0.4394728,0.1772354,-0.34091434,0.7353264,0.8524539,0.7224199,-0.77950954,-0.06808554,0.37201142,0.23901352,-0.82682556,0.6721293,-0.49218586,0.75136757,0.30867213,-0.17328556,0.758644,-0.33669895,0.16873996,-0.4934447,0.48089013,-0.7031735,0.37850058,-0.62485766,-0.34708434,0.83189607,-0.58979756,-0.12138866,0.74829274,-0.018560372,0.041125804,0.84024215,0.6455937,0.828999,0.5525378,0.88161606,0.07516719,0.5673269,-0.8856742,-0.42999983,0.55237037,-0.5549491,0.0309393,0.23700082,0.29050514,0.18569377,-0.32373345,-0.4100085,0.48598877,0.23154938,0.4857376,0.8652427,-0.5215774,0.14239079,0.28100032,0.49809018,-0.3217181,-0.7617413,-0.27799317,0.5638883,0.7131303,-0.4139472,-0.32527992,0.20852844,-0.6234063,-0.47342798,0.93855906,-0.6356158,0.81248397,0.57406306,-0.18282422,0.6102472,0.05738485,0.19027597,-0.018670134,0.29987317,-0.40630865,-0.74121773,-0.7569281,0.42112458,0.8946851,-0.19111781,0.22336501,-0.1434037,0.1859116,-0.25663057,-0.5211182,0.117588416,-0.64977586,0.11342111,0.52282554,-0.69584274,0.36265475,-0.8055793,-0.9051379,-0.48651874,-0.5111474,-0.9337375,0.48831218,0.45033124,0.4273954,0.40226513,-0.81499225,0.81073904,0.77105534,0.332281,0.14760387,0.27103034,0.576346,0.20484655,-0.6178329,0.40216282,-0.52550006,0.11398396,-0.7124048,0.023286335,-0.3675466,-0.7878761,0.35201102,0.16117442,-0.058854103,0.22262518,0.8399538,-0.31563175,0.39658445,0.5184453,-0.49806985,0.14642973,-0.018673271,0.58230007,0.6309077,-0.2565422,-0.75586283,0.8296501,-0.5304377,-0.2304438,-0.40019447,-0.5535207,-0.2715538,0.9619684,0.18252121,0.6575864,0.42790955,-0.4915893,-0.47981757,-0.16719773,-0.1387461,-0.2663596,0.8921756,-0.5115822,0.7570813,0.51225436,-0.7371806,0.48721433,-0.7756518,-0.13560475,-0.7650151,0.74070674,-0.42713037,0.16445112,0.12333958,-0.7539221,0.964275,0.49655968,0.23744193,0.16084655,-0.67990327,-0.6457297,-0.8114968,0.308676,0.16755849,0.17969078,0.20873114,0.5665818,0.01583463,-0.34144646,0.46607837,-0.5293689,0.2204797,0.82868284,0.42490304,-0.115044415,-0.585187,-0.21719716,0.03561257,0.2676941,0.6764803,0.8476908,0.47966072,0.7254524,0.34427902,-0.40829682,0.27632517,-0.6769247,0.81087124,0.6742606,0.98002726,-0.41072348,0.6332717,-0.5750738,0.7975738,-0.58284414,-0.5535463,0.59872985,-0.6268045,0.70237756,0.12592311,0.48987314,0.50497013,-0.8228515,0.0779963,0.836207,0.6784148,-0.17543818,-0.042878725,0.33067912,0.6785674,0.1776205,-0.26753837,0.36729282,-0.031060077,-0.49949297,-0.40332222,0.062374897,0.5144856,0.72605586,0.23067687,0.843635,0.19997399,0.61314327,-0.66364694,-0.5524545,0.36963132,-0.787995,0.53582394,0.44280034,-0.5604368,-0.2927371,0.037378535,-0.30616078,-0.58965653,0.46338952,0.4916923,-0.4011011,-0.54926723,0.6958542,0.46832094,0.09871018,-0.018804774,-0.49634057,0.5927601,-0.6891631,0.54899037,-0.8460473,0.110107094,0.15893266,-0.08382857,-0.45249963,0.37063855,0.027021438,-0.69747955,0.25659487,0.15710543,0.7666718,-0.6724303,0.13982129,0.022648938,0.8589362,-0.21660626,-0.30725706,-0.40956843,-0.42718703,0.21180016,0.20675159,0.4841078,0.46706894,0.5781973,0.27041316,0.22615337,-0.1273537,-0.8220109,-0.28493935,-0.9257407,-0.609057,0.9531541,-0.24989009,-0.56501126,-0.102068424,-0.68630964,-0.703891
